1.531449892043099392e-01 2.933177464660743916e-01 3.515905692774484170e-01 1.291464607545346477e-01 8.879078884685376316e-02 5.741464485309051569e-02 1.523268125620482784e-02 2.626058844483848409e-01 5.117661800587126018e-03 3.473505095665369025e-01 3.403122025462034239e-01 3.945955260471853965e-01 5.402138737304360699e-02 2.938424158234841932e-01 1.339388595037981078e-01 1.425190899098991160e-01 1.068301069071194986e-01 1.669498032378094118e-02 1.831890532068154165e-01 1.718843349685157951e-01 4.010076032405360952e-02 1.361580779241969297e-01 3.048330719749474116e-01 3.075567046914413072e-01 2.615090613003351883e-01 6.444056503073150588e-02 1.327202029499439662e-01 2.457010270954056164e-01 1.489886766157993703e-01 7.474248704199784599e-02 3.589080608944106854e-01 1.691869474301350429e-01 1.027584433366133254e-01 3.813389182630274044e-01 6.456184277678503336e-02 1.957781518740762672e-01 2.226150038822551913e-01 3.279274345438458749e-01 1.991656333273543467e-01 3.488600731775503561e-01 3.208747158111603381e-01 3.095748170103021155e-02 3.489105612914557009e-01 3.626901728991871465e-02 1.858195755798550675e-01 2.864458927034392588e-02 1.738045458527252285e-01 4.481242454811189962e-02 9.205301004411468868e-02 3.756974144284132566e-01 1.011780126365561944e-01 3.314899592241111748e-01 3.014007686597528490e-01 1.193281637479655100e-01 2.413199246208520554e-01 1.949941820339173015e-01 1.577727958121977192e-01 2.022632961504328142e-01 4.408668805920896994e-02 2.472864311386304692e-01 1.706581850858315819e-01 1.578349485191074819e-01 9.117369239280287418e-02 3.427982141661777837e-01
1.219866454086276253e+00 1.217079117519239695e+00 1.217079088977685242e+00 -1.199999999999999956e+00 -1.199999999999999956e+00 -1.199999999999999956e+00 -1.199999999999999956e+00 -1.199999999999999956e+00 1.207287479961779875e+00 1.207285827247110088e+00 1.361649742041150857e+00 -1.199999999999999956e+00 -1.199999999999999956e+00 -1.199999999999999956e+00 -1.199999999999999956e+00 -1.199999999999999956e+00 1.215047194823363430e+00 1.273011625611775832e+00 1.219866453864246081e+00 -1.199999999999999956e+00 -1.199999999999999956e+00 -1.199999999999999956e+00 -1.199999999999999956e+00 -1.199999999999999956e+00 1.219866454097423558e+00 1.217079041604733902e+00 1.217079094292255581e+00 -1.199999999999999956e+00 -1.199999999999999956e+00 -1.199999999999999956e+00 -1.199999999999999956e+00 -1.199999999999999956e+00 1.211781281359439300e+00 -1.199999999999999956e+00 1.240599367749838144e+00 -1.199999999999999956e+00 -1.199999999999999956e+00 -1.199999999999999956e+00 -1.199999999999999956e+00 -1.199999999999999956e+00 1.215047194841306410e+00 1.219866453950400942e+00 1.217079074005712025e+00 -1.199999999999999956e+00 -1.199999999999999956e+00 -1.199999999999999956e+00 -1.199999999999999956e+00 -1.199999999999999956e+00 1.207284474331144386e+00 1.204260160428386905e+00 1.204260262823241501e+00 -1.199999999999999956e+00 -1.199999999999999956e+00 -1.199999999999999956e+00 -1.199999999999999956e+00 -1.199999999999999956e+00 1.219866454135404732e+00 1.215047194846570200e+00 1.217079063329588262e+00 1.316637498868856726e+00 -1.199999999999999956e+00 -1.199999999999999956e+00 -1.199999999999999956e+00 -1.199999999999999956e+00
-1.199999999999999956e+00 -1.199999999999999956e+00 -1.199999999999999956e+00 -1.199999999999999956e+00 -1.199999999999999956e+00 1.208693224966354007e+00 1.242427785792960426e+00 1.220182389216887486e+00 -1.199999999999999956e+00 -1.199999999999999956e+00 -1.199999999999999956e+00 -1.199999999999999956e+00 -1.199999999999999956e+00 1.223233939185490282e+00 1.228945168893637696e+00 1.206922377620361253e+00 -1.199999999999999956e+00 -1.199999999999999956e+00 -1.199999999999999956e+00 -1.199999999999999956e+00 -1.199999999999999956e+00 1.206922376812655351e+00 1.242426101715444986e+00 1.218677363094761157e+00 -1.199999999999999956e+00 -1.199999999999999956e+00 -1.199999999999999956e+00 -1.199999999999999956e+00 -1.199999999999999956e+00 1.228945136160481288e+00 1.256611647205805316e+00 1.218677363077514952e+00 -1.199999999999999956e+00 -1.199999999999999956e+00 -1.199999999999999956e+00 -1.199999999999999956e+00 -1.199999999999999956e+00 1.220140807347005252e+00 1.242428787641727039e+00 1.218677363074684772e+00 -1.199999999999999956e+00 -1.199999999999999956e+00 -1.199999999999999956e+00 -1.199999999999999956e+00 -1.199999999999999956e+00 1.228945156747563106e+00 1.256482999011766077e+00 1.206922377305345684e+00 -1.199999999999999956e+00 -1.199999999999999956e+00 -1.199999999999999956e+00 -1.199999999999999956e+00 -1.199999999999999956e+00 1.206922377192516382e+00 1.206922377851675554e+00 1.332187876598968757e+00 -1.199999999999999956e+00 -1.199999999999999956e+00 -1.199999999999999956e+00 -1.199999999999999956e+00 1.231268860596898662e+00 1.208693258973320805e+00 1.218677363062715235e+00 1.228945156707415665e+00
