-1.499999999999999944e-01 -1.499999999999999944e-01 -1.499999999999999944e-01 -1.499999999999999944e-01 -1.499999999999999944e-01 -1.499999999999999944e-01 -1.499999999999999944e-01 -1.499999999999999944e-01 -1.499999999999999944e-01 -1.499999999999999944e-01 -1.499999999999999944e-01 -1.499999999999999944e-01 -1.499999999999999944e-01 -1.499999999999999944e-01 -1.499999999999999944e-01 -1.499999999999999944e-01 -1.499999999999999944e-01 -1.499999999999999944e-01 -1.499999999999999944e-01 -1.499999999999999944e-01 -1.499999999999999944e-01 -1.499999999999999944e-01 -1.499999999999999944e-01 -1.499999999999999944e-01 -1.499999999999999944e-01 -1.499999999999999944e-01 -1.499999999999999944e-01 -1.499999999999999944e-01 -1.499999999999999944e-01 -1.499999999999999944e-01 -1.499999999999999944e-01 -1.499999999999999944e-01 -1.499999999999999944e-01 -1.499999999999999944e-01 -1.499999999999999944e-01 -1.499999999999999944e-01 -1.499999999999999944e-01 -1.499999999999999944e-01 -1.499999999999999944e-01 -1.499999999999999944e-01 -1.499999999999999944e-01 -1.499999999999999944e-01 -1.499999999999999944e-01 -1.499999999999999944e-01 -1.499999999999999944e-01 -1.499999999999999944e-01 -1.499999999999999944e-01 -1.499999999999999944e-01 -1.499999999999999944e-01 -1.499999999999999944e-01 -1.499999999999999944e-01 -1.499999999999999944e-01 -1.499999999999999944e-01 -1.499999999999999944e-01 -1.499999999999999944e-01 -1.499999999999999944e-01 -1.499999999999999944e-01 -1.499999999999999944e-01 -1.499999999999999944e-01 -1.499999999999999944e-01 -1.499999999999999944e-01 -1.499999999999999944e-01 -1.499999999999999944e-01 -1.499999999999999944e-01 -1.499999999999999944e-01 -1.499999999999999944e-01 -1.499999999999999944e-01 -1.499999999999999944e-01 -1.499999999999999944e-01 -1.499999999999999944e-01 -1.499999999999999944e-01 -1.499999999999999944e-01 -1.499999999999999944e-01 9.587331827440681575e-02 -1.499999999999999944e-01 -1.499999999999999944e-01 -1.499999999999999944e-01 -1.499999999999999944e-01 -1.499999999999999944e-01 -1.499999999999999944e-01 -1.499999999999999944e-01 -1.499999999999999944e-01 -1.499999999999999944e-01 -1.499999999999999944e-01 -1.499999999999999944e-01 -1.499999999999999944e-01 -1.499999999999999944e-01 -1.499999999999999944e-01 -1.499999999999999944e-01 -1.499999999999999944e-01 -1.499999999999999944e-01 -1.499999999999999944e-01 -1.499999999999999944e-01 -1.499999999999999944e-01 -1.499999999999999944e-01 5.481803948004881910e-02 6.340037939023807079e-02 2.527537114036665367e-02 -1.499999999999999944e-01 -1.499999999999999944e-01 1.440801664700029905e-01 -9.400703942585603157e-02 -1.499999999999999944e-01 -1.499999999999999944e-01 -1.499999999999999944e-01 -1.499999999999999944e-01 -1.499999999999999944e-01 -1.499999999999999944e-01 -1.499999999999999944e-01 -1.499999999999999944e-01 -1.499999999999999944e-01 -1.499999999999999944e-01 -1.499999999999999944e-01 -1.499999999999999944e-01 -1.499999999999999944e-01 -1.499999999999999944e-01 -1.499999999999999944e-01 -1.499999999999999944e-01 -1.499999999999999944e-01 -1.499999999999999944e-01 -1.499999999999999944e-01 -1.499999999999999944e-01 -1.499999999999999944e-01 2.219002662461032060e-01 4.702829732212897018e-01 7.656451772978653536e-02 -1.499999999999999944e-01 7.192164526340003583e-01 1.094146112015266237e+00 1.132022672515752060e+00 1.353850527110230573e+00 -1.309850650959701879e-01 2.774372077976900997e-01 1.645176526099162428e-01 -1.499999999999999944e-01 -1.499999999999999944e-01 -1.499999999999999944e-01 -1.499999999999999944e-01 -1.499999999999999944e-01 -1.499999999999999944e-01 -1.499999999999999944e-01 -1.499999999999999944e-01 -1.499999999999999944e-01 -1.499999999999999944e-01 -1.499999999999999944e-01 -1.499999999999999944e-01 -1.499999999999999944e-01 -1.499999999999999944e-01 -1.499999999999999944e-01 -1.499999999999999944e-01 -1.499999999999999944e-01 7.420030570693245675e-01 1.431423259245740987e+00 1.433304752474439114e+00 1.677690523329087524e+00 1.965285278105163069e+00 1.938415501279016073e+00 1.925000914554799047e+00 1.862958546137589266e+00 1.848183149550941318e+00 1.268594650826666559e+00 1.090927586244146985e+00 7.022738892738509264e-01 -9.322735951457472581e-02 -1.499999999999999944e-01 -1.499999999999999944e-01 -1.499999999999999944e-01 -1.499999999999999944e-01 -1.499999999999999944e-01 -1.499999999999999944e-01 -1.499999999999999944e-01 -1.499999999999999944e-01 -1.499999999999999944e-01 -1.499999999999999944e-01 -1.499999999999999944e-01 -1.499999999999999944e-01 -1.499999999999999944e-01 -1.119901469606041644e-01 1.125666042026157054e+00 1.073254478140127199e+00 1.616327737152328359e+00 1.836422297526065783e+00 1.922304269511234898e+00 1.919537890672874170e+00 1.972657460160162080e+00 1.950588369531304878e+00 1.957789667080173102e+00 1.842269091685303728e+00 1.741182496669149149e+00 1.482587291232821958e+00 1.361907120426692597e+00 2.081047047755741342e-01 -1.499999999999999944e-01 -1.499999999999999944e-01 -1.499999999999999944e-01 -1.499999999999999944e-01 -1.499999999999999944e-01 -1.499999999999999944e-01 -1.499999999999999944e-01 -1.499999999999999944e-01 -1.499999999999999944e-01 -1.499999999999999944e-01 -1.499999999999999944e-01 -1.499999999999999944e-01 -8.903637410225306859e-02 3.734054469946709864e-01 1.169439133734423653e+00 1.545352207879973294e+00 1.752622509983689847e+00 1.886918485007534008e+00 1.867261616086051124e+00 1.812242129753680819e+00 1.814266919035925962e+00 1.881197975180026072e+00 1.789730847635471189e+00 1.835595869472651742e+00 1.563948769227264890e+00 1.556136403560388626e+00 1.568193052138434185e+00 1.455740897331000427e+00 -1.499999999999999944e-01 -1.499999999999999944e-01 -1.499999999999999944e-01 -1.499999999999999944e-01 -1.499999999999999944e-01 -1.499999999999999944e-01 -1.499999999999999944e-01 -1.499999999999999944e-01 -1.499999999999999944e-01 -1.499999999999999944e-01 -1.171229110755780956e-01 -1.499999999999999944e-01 -1.181993747383974225e-01 9.261480901834171497e-01 1.552420852769744286e+00 1.624856876263207850e+00 1.750039930344923000e+00 1.794267385681657334e+00 1.811410255101940203e+00 1.678628096796423108e+00 1.667232042131770564e+00 1.595301018882305133e+00 1.696034511075468876e+00 1.616802576098263833e+00 1.655808366178766811e+00 1.695876863800998002e+00 1.767182304456445863e+00 9.610334827173555583e-01 5.750656967338785286e-02 -1.499999999999999944e-01 -1.499999999999999944e-01 -1.499999999999999944e-01 -1.499999999999999944e-01 -1.499999999999999944e-01 -1.499999999999999944e-01 -1.499999999999999944e-01 -1.499999999999999944e-01 -1.499999999999999944e-01 -1.499999999999999944e-01 2.426083889239594726e-01 1.119627983333314480e+00 1.569132326411826206e+00 1.807585388115586111e+00 1.816272120403623846e+00 1.752439070608581950e+00 1.599895019514795846e+00 1.625840593031142145e+00 1.577332030129875662e+00 1.207308510911108801e+00 9.866804356908752682e-01 1.191341288003330279e+00 1.599130972391028305e+00 1.597418866764316103e+00 1.770113172353301456e+00 1.701709258060041030e+00 1.294974057878063523e+00 -1.499999999999999944e-01 -1.499999999999999944e-01 -1.499999999999999944e-01 -1.499999999999999944e-01 -1.499999999999999944e-01 -1.499999999999999944e-01 -1.499999999999999944e-01 -1.499999999999999944e-01 -1.499999999999999944e-01 -1.499999999999999944e-01 -1.499999999999999944e-01 -1.076850007762310268e-02 7.723588730767440014e-01 1.800191358884150494e+00 1.819994101240252737e+00 1.789075449346372970e+00 1.765816645260048112e+00 1.586268477611878280e+00 1.690737096579386645e+00 1.005781987132465138e+00 3.830526710294804849e-01 4.752312128780349920e-01 1.013182416633031657e+00 1.432501194627242347e+00 1.586458676756135056e+00 1.719967928214356956e+00 1.694324029168670531e+00 1.250243357513679543e+00 3.511792278857783778e-02 -1.499999999999999944e-01 -1.499999999999999944e-01 -1.499999999999999944e-01 -1.499999999999999944e-01 -1.499999999999999944e-01 -1.499999999999999944e-01 -1.499999999999999944e-01 -1.499999999999999944e-01 -1.499999999999999944e-01 -8.380710503945380807e-02 9.000783043537320394e-01 1.500003720577847366e+00 1.700312169585605160e+00 1.863826561133300030e+00 1.820072091156302863e+00 1.610397597937918812e+00 1.498375707579364002e+00 5.045765102754371512e-01 -1.499999999999999944e-01 -1.499999999999999944e-01 -1.499999999999999944e-01 5.360825243555391584e-01 1.167290530210734145e+00 1.538751229619777616e+00 1.788935029265496190e+00 1.441016359187123230e+00 9.335074821306642567e-01 -1.499999999999999944e-01 -1.499999999999999944e-01 -1.499999999999999944e-01 -1.499999999999999944e-01 -1.499999999999999944e-01 -1.499999999999999944e-01 -1.499999999999999944e-01 -1.499999999999999944e-01 -1.499999999999999944e-01 -1.499999999999999944e-01 2.382286554244515686e-01 1.327015995956023930e+00 1.707540543626795859e+00 1.779007851179789990e+00 1.737359713421319896e+00 1.659021989453407064e+00 1.547162823472930437e+00 2.896760598319301216e-01 -1.499999999999999944e-01 -1.499999999999999944e-01 -1.499999999999999944e-01 -1.499999999999999944e-01 4.261975172328454908e-01 1.439061602648367577e+00 1.554786523219795047e+00 1.636811448947510295e+00 1.781247171076867586e+00 1.117484574541926401e+00 -1.499999999999999944e-01 -1.499999999999999944e-01 -1.499999999999999944e-01 -1.499999999999999944e-01 -1.499999999999999944e-01 -1.499999999999999944e-01 -1.499999999999999944e-01 -1.499999999999999944e-01 -1.499999999999999944e-01 -1.499999999999999944e-01 1.539456683463119868e-01 1.362547393091402936e+00 1.772232375618644662e+00 1.834296203229997646e+00 1.829137065970903864e+00 1.589994303350843019e+00 6.350196024703218534e-01 5.525836663019301209e-02 -1.499999999999999944e-01 -1.499999999999999944e-01 -1.499999999999999944e-01 -1.499999999999999944e-01 9.313625636689928378e-01 1.606756107989155913e+00 1.573178935304863302e+00 1.878757766072086444e+00 1.787948858344028613e+00 1.268490417295805583e+00 -1.499999999999999944e-01 -1.499999999999999944e-01 -1.499999999999999944e-01 -1.499999999999999944e-01 -1.499999999999999944e-01 -1.499999999999999944e-01 -1.499999999999999944e-01 -1.499999999999999944e-01 -1.499999999999999944e-01 -2.759932731979101647e-02 1.176435984244591504e+00 1.566800935836636377e+00 1.863048362103693290e+00 1.790986438689479820e+00 1.811706139192786669e+00 1.158683034997511907e+00 2.064070817970294347e-01 -1.499999999999999944e-01 -1.499999999999999944e-01 -1.499999999999999944e-01 -1.499999999999999944e-01 -1.499999999999999944e-01 6.670581204581678136e-01 1.498377288476412161e+00 1.739588553329247667e+00 1.770580247566391652e+00 1.796469425046257395e+00 1.067409574127329730e+00 -1.499999999999999944e-01 -1.499999999999999944e-01 -1.499999999999999944e-01 -1.499999999999999944e-01 -1.499999999999999944e-01 -1.499999999999999944e-01 -1.499999999999999944e-01 -1.499999999999999944e-01 -1.499999999999999944e-01 3.890093724577263767e-01 1.259344308651219269e+00 1.711987762860041506e+00 1.892332400812439364e+00 1.812835248411100109e+00 1.671596209937040056e+00 1.024450097392909154e+00 -1.499999999999999944e-01 -1.499999999999999944e-01 -1.499999999999999944e-01 -1.499999999999999944e-01 -1.499999999999999944e-01 -1.499999999999999944e-01 1.605973048742811216e+00 1.647827516057936759e+00 1.691780068195456899e+00 1.763074044961854048e+00 1.363489094969408733e+00 7.071632250431711952e-01 -1.499999999999999944e-01 -1.499999999999999944e-01 -1.499999999999999944e-01 -1.499999999999999944e-01 -1.499999999999999944e-01 -1.499999999999999944e-01 -1.499999999999999944e-01 -1.499999999999999944e-01 4.243930546247819818e-02 3.285667986543073238e-01 1.661830883041641282e+00 1.888096478112808896e+00 1.910037227318759356e+00 1.831880700106734317e+00 1.358312731703913201e+00 4.517211942523773893e-01 -1.499999999999999944e-01 -1.499999999999999944e-01 -1.499999999999999944e-01 -1.499999999999999944e-01 1.044950290856575953e-01 8.651614624462625747e-01 1.638816186156999199e+00 1.869776376681816288e+00 1.849238038268399720e+00 1.589031063506701313e+00 1.152815772236664760e+00 1.875453809565379437e-01 -1.499999999999999944e-01 -1.499999999999999944e-01 -1.499999999999999944e-01 -1.499999999999999944e-01 -1.499999999999999944e-01 -1.499999999999999944e-01 -1.499999999999999944e-01 -1.499999999999999944e-01 -6.643224824691754127e-02 4.403525923620242866e-01 1.212752822322313850e+00 1.934098868991252385e+00 1.906820099027909610e+00 1.629338184798626354e+00 1.116224416409249631e+00 -1.499999999999999944e-01 -1.499999999999999944e-01 -1.499999999999999944e-01 -1.499999999999999944e-01 -6.152021576280898574e-02 -4.378649773281645396e-02 1.517850609054483879e+00 1.874911829312000178e+00 1.874115565661482075e+00 1.848523895331033007e+00 1.485718525793205069e+00 9.049977372076853932e-01 -1.499999999999999944e-01 -1.499999999999999944e-01 -1.499999999999999944e-01 -1.499999999999999944e-01 -1.499999999999999944e-01 -1.499999999999999944e-01 -1.499999999999999944e-01 -1.499999999999999944e-01 -1.499999999999999944e-01 3.570010210936801209e-02 1.207025061414619405e+00 1.425173505830096721e+00 1.860106433542248361e+00 1.925542619922813836e+00 1.548963435484771889e+00 4.130246441241273159e-01 -1.499999999999999944e-01 -1.499999999999999944e-01 -1.499999999999999944e-01 -6.828716306292385851e-02 1.188832920877584964e+00 1.310853953788992943e+00 1.914802350412772691e+00 1.934476249945303428e+00 1.840813791358616225e+00 1.765494290745817541e+00 1.304946257724011405e+00 7.420795514688389716e-01 -1.130254501510944420e-01 -1.499999999999999944e-01 -1.499999999999999944e-01 -1.499999999999999944e-01 -1.499999999999999944e-01 -1.499999999999999944e-01 -1.499999999999999944e-01 -1.499999999999999944e-01 -1.499999999999999944e-01 7.739158467948466236e-02 1.996739143999541610e-01 1.115384306830155881e+00 1.863183341461742915e+00 1.925280930573523674e+00 1.654765545663384074e+00 6.881016116359202073e-01 9.587331827440681575e-02 -5.065171032652188848e-02 -9.409809263240082045e-02 3.272153754322892349e-01 1.687801046832711815e+00 1.864768334613910561e+00 1.935577805752268121e+00 1.926623627190590993e+00 1.725761062686232750e+00 1.208031115987627357e+00 -4.694378442759152004e-02 3.177381087736044218e-01 1.177408837822637167e-01 -1.499999999999999944e-01 -1.499999999999999944e-01 -1.499999999999999944e-01 -1.499999999999999944e-01 -1.499999999999999944e-01 -1.499999999999999944e-01 -1.499999999999999944e-01 -1.499999999999999944e-01 -1.064440113387403464e-01 -8.866136126746013146e-03 9.669526172872980885e-01 1.895923959945112092e+00 1.953307928085374234e+00 1.920068920176822624e+00 1.668879534037818413e+00 1.391897492383233681e+00 1.474053799845304269e+00 1.718806900669394455e+00 1.843145787305409122e+00 1.938336321181865385e+00 1.931882502061451623e+00 1.900346739654991568e+00 1.794158980317272611e+00 1.069613742835330505e+00 3.116659928692074311e-01 1.199907557700291560e-02 -1.499999999999999944e-01 -1.499999999999999944e-01 -1.499999999999999944e-01 -1.499999999999999944e-01 -1.499999999999999944e-01 -1.499999999999999944e-01 -1.499999999999999944e-01 -1.499999999999999944e-01 -1.499999999999999944e-01 -1.499999999999999944e-01 -1.298174890077918864e-01 1.776145240678491388e-01 1.074227945164063946e+00 1.817207097039274855e+00 1.962518566223566019e+00 1.913251739878735647e+00 1.854728075978083757e+00 1.912493476989478580e+00 1.947768961084584527e+00 1.982329678969218412e+00 1.906605690629929351e+00 1.949363110487205564e+00 1.915352372765995126e+00 1.869538907023338137e+00 1.260210152129425776e+00 -1.967976987656000487e-02 -1.499999999999999944e-01 1.034821136471814618e-01 -1.499999999999999944e-01 -1.499999999999999944e-01 -1.499999999999999944e-01 -1.499999999999999944e-01 -1.499999999999999944e-01 -1.499999999999999944e-01 -1.499999999999999944e-01 -1.499999999999999944e-01 -1.499999999999999944e-01 -1.499999999999999944e-01 -1.499999999999999944e-01 -1.333483594247613924e-01 9.801955675052242967e-01 1.799826588347978484e+00 1.928869702883182491e+00 1.956836946441363079e+00 1.960824347480130792e+00 1.949813042047962020e+00 1.954667697134408799e+00 1.940946954961759063e+00 1.891904347720688939e+00 1.905027109522625883e+00 1.674482986567031428e+00 1.052696038074430351e+00 4.063658924154428531e-01 2.577878304086834160e-01 -1.499999999999999944e-01 -1.499999999999999944e-01 -1.499999999999999944e-01 -1.499999999999999944e-01 -1.499999999999999944e-01 -1.499999999999999944e-01 -1.499999999999999944e-01 -1.499999999999999944e-01 -1.499999999999999944e-01 -1.499999999999999944e-01 -1.499999999999999944e-01 -1.499999999999999944e-01 -1.499999999999999944e-01 -1.499999999999999944e-01 -9.396074449878100143e-02 6.172487658763230467e-01 1.501257877304919885e+00 1.701695533153602335e+00 1.735595037017661380e+00 1.695763443378416779e+00 1.654017925095123465e+00 1.649142206090651541e+00 1.414724674752075861e+00 1.430498972206451169e+00 9.922844748792529757e-01 7.035793733900728153e-01 9.554912688281230748e-02 -1.499999999999999944e-01 -1.499999999999999944e-01 -1.499999999999999944e-01 -1.499999999999999944e-01 -1.499999999999999944e-01 -1.499999999999999944e-01 -1.499999999999999944e-01 -1.499999999999999944e-01 -1.499999999999999944e-01 -1.499999999999999944e-01 -1.499999999999999944e-01 -1.499999999999999944e-01 -1.499999999999999944e-01 -1.499999999999999944e-01 -1.499999999999999944e-01 -1.499999999999999944e-01 -1.499999999999999944e-01 -4.511632112098604153e-02 2.130207609684672820e-02 6.460201095357589463e-01 4.708682954254995168e-01 1.377341467731286739e-01 1.671588798099529760e-01 -1.499999999999999944e-01 -1.499999999999999944e-01 -1.499999999999999944e-01 -1.499999999999999944e-01 -1.499999999999999944e-01 -1.499999999999999944e-01 -1.499999999999999944e-01 -1.499999999999999944e-01 -1.499999999999999944e-01 -1.499999999999999944e-01 -1.499999999999999944e-01 -1.499999999999999944e-01 -1.499999999999999944e-01 -1.499999999999999944e-01 -1.499999999999999944e-01 -1.499999999999999944e-01 -1.499999999999999944e-01 -1.499999999999999944e-01 -1.499999999999999944e-01 -1.499999999999999944e-01 -1.499999999999999944e-01 -1.499999999999999944e-01 -1.499999999999999944e-01 -1.499999999999999944e-01 -1.499999999999999944e-01 -1.499999999999999944e-01 -1.499999999999999944e-01 -1.499999999999999944e-01 -1.191169663138044732e-02 -1.499999999999999944e-01 -1.499999999999999944e-01 -1.499999999999999944e-01 -1.499999999999999944e-01 -1.499999999999999944e-01 -1.499999999999999944e-01 -1.499999999999999944e-01 -1.499999999999999944e-01 -1.499999999999999944e-01 -1.499999999999999944e-01 -1.499999999999999944e-01 -1.499999999999999944e-01 -1.499999999999999944e-01 -1.499999999999999944e-01 -1.499999999999999944e-01 -1.499999999999999944e-01 -1.499999999999999944e-01 -1.499999999999999944e-01 -1.499999999999999944e-01 -1.499999999999999944e-01 -1.499999999999999944e-01 -1.499999999999999944e-01 -1.499999999999999944e-01 -1.499999999999999944e-01 -1.499999999999999944e-01 -1.499999999999999944e-01 -1.499999999999999944e-01 -1.499999999999999944e-01 -1.499999999999999944e-01 -1.499999999999999944e-01 -1.499999999999999944e-01 -1.499999999999999944e-01 -1.499999999999999944e-01 -1.499999999999999944e-01 -1.499999999999999944e-01 -1.499999999999999944e-01 -1.499999999999999944e-01 -1.499999999999999944e-01 -1.499999999999999944e-01 -1.499999999999999944e-01 -1.499999999999999944e-01 -1.499999999999999944e-01 -1.499999999999999944e-01 -1.499999999999999944e-01 -1.499999999999999944e-01 -1.499999999999999944e-01 -1.499999999999999944e-01 -1.499999999999999944e-01 -1.499999999999999944e-01 -1.499999999999999944e-01 -1.499999999999999944e-01 -1.499999999999999944e-01 -1.499999999999999944e-01 -1.499999999999999944e-01 -1.499999999999999944e-01 -1.499999999999999944e-01 -1.499999999999999944e-01 -1.499999999999999944e-01 -1.499999999999999944e-01 -1.499999999999999944e-01 -1.499999999999999944e-01 -1.499999999999999944e-01 -1.499999999999999944e-01 -1.499999999999999944e-01 -1.499999999999999944e-01 -1.499999999999999944e-01 -1.499999999999999944e-01 -1.499999999999999944e-01 -1.499999999999999944e-01
-1.499999999999999944e-01 -1.499999999999999944e-01 -1.499999999999999944e-01 -1.499999999999999944e-01 -1.499999999999999944e-01 -1.499999999999999944e-01 -1.499999999999999944e-01 -1.499999999999999944e-01 -1.499999999999999944e-01 -1.499999999999999944e-01 -1.499999999999999944e-01 -1.499999999999999944e-01 -1.499999999999999944e-01 -1.499999999999999944e-01 -1.499999999999999944e-01 -1.499999999999999944e-01 -1.499999999999999944e-01 -1.499999999999999944e-01 -1.499999999999999944e-01 -1.499999999999999944e-01 -1.499999999999999944e-01 -1.499999999999999944e-01 -1.499999999999999944e-01 -1.499999999999999944e-01 -1.499999999999999944e-01 -1.499999999999999944e-01 -1.499999999999999944e-01 -1.499999999999999944e-01 -1.499999999999999944e-01 -1.499999999999999944e-01 -1.499999999999999944e-01 -1.499999999999999944e-01 -1.499999999999999944e-01 -1.499999999999999944e-01 -1.499999999999999944e-01 -1.499999999999999944e-01 -1.499999999999999944e-01 -1.499999999999999944e-01 -1.499999999999999944e-01 -1.499999999999999944e-01 -1.499999999999999944e-01 -1.499999999999999944e-01 -1.499999999999999944e-01 -1.499999999999999944e-01 -1.499999999999999944e-01 -1.499999999999999944e-01 -1.499999999999999944e-01 -1.499999999999999944e-01 -1.499999999999999944e-01 -1.499999999999999944e-01 -1.499999999999999944e-01 -1.499999999999999944e-01 -1.499999999999999944e-01 -1.499999999999999944e-01 -1.499999999999999944e-01 -1.499999999999999944e-01 -1.499999999999999944e-01 -1.499999999999999944e-01 -1.499999999999999944e-01 -1.499999999999999944e-01 -1.499999999999999944e-01 -1.499999999999999944e-01 -1.499999999999999944e-01 -1.499999999999999944e-01 -1.499999999999999944e-01 -1.499999999999999944e-01 -1.499999999999999944e-01 -1.168256849582888224e-01 -1.499999999999999944e-01 -1.499999999999999944e-01 -1.499999999999999944e-01 -1.298174890077918864e-01 -1.499999999999999944e-01 -1.499999999999999944e-01 -1.499999999999999944e-01 -1.499999999999999944e-01 -1.499999999999999944e-01 -1.499999999999999944e-01 -1.499999999999999944e-01 -1.499999999999999944e-01 -1.499999999999999944e-01 -1.499999999999999944e-01 -1.499999999999999944e-01 -1.499999999999999944e-01 -1.499999999999999944e-01 -1.499999999999999944e-01 -1.499999999999999944e-01 -1.499999999999999944e-01 -1.499999999999999944e-01 -1.499999999999999944e-01 -1.499999999999999944e-01 -1.499999999999999944e-01 -1.499999999999999944e-01 -1.499999999999999944e-01 1.173075930036465986e-01 1.662265595429436582e-02 -1.499999999999999944e-01 -1.499999999999999944e-01 2.605055696912410013e-01 -9.557055083292180508e-02 -1.499999999999999944e-01 4.825883829900944888e-01 -7.459813202153137146e-02 -1.499999999999999944e-01 -1.499999999999999944e-01 -1.499999999999999944e-01 -1.499999999999999944e-01 -1.499999999999999944e-01 -1.499999999999999944e-01 -1.499999999999999944e-01 -1.499999999999999944e-01 -1.499999999999999944e-01 -1.499999999999999944e-01 -1.499999999999999944e-01 -1.499999999999999944e-01 -1.499999999999999944e-01 -1.499999999999999944e-01 -1.499999999999999944e-01 -1.499999999999999944e-01 -1.499999999999999944e-01 -1.499999999999999944e-01 -1.499999999999999944e-01 -1.386650218080103247e-01 6.863311464297637832e-01 4.457352828675220646e-01 1.028138238528301995e+00 1.039026086050484077e+00 9.713444434518135884e-01 1.758930598494802267e+00 8.669089730184227349e-01 8.413344270062586006e-01 1.384093131411573419e+00 -1.176901247169979542e-01 -1.499999999999999944e-01 -1.499999999999999944e-01 -1.499999999999999944e-01 -1.499999999999999944e-01 -1.499999999999999944e-01 -1.499999999999999944e-01 -1.499999999999999944e-01 -1.499999999999999944e-01 -1.499999999999999944e-01 -1.499999999999999944e-01 -1.499999999999999944e-01 -1.499999999999999944e-01 -1.499999999999999944e-01 -1.499999999999999944e-01 -1.499999999999999944e-01 2.365767538681672888e-01 -1.499999999999999944e-01 1.525418022094356396e-01 1.324900067111457025e+00 1.599917783017819062e+00 1.416577002507886540e+00 1.526151171028734321e+00 1.660518321478844372e+00 1.932527984099962959e+00 1.769561142180474445e+00 1.748305094992455011e+00 1.608939968673585907e+00 1.063035862024224398e+00 -1.499999999999999944e-01 -1.499999999999999944e-01 -1.499999999999999944e-01 -1.499999999999999944e-01 -1.499999999999999944e-01 -1.499999999999999944e-01 -1.499999999999999944e-01 -1.499999999999999944e-01 -1.499999999999999944e-01 -1.499999999999999944e-01 -1.499999999999999944e-01 -1.499999999999999944e-01 -1.499999999999999944e-01 -1.499999999999999944e-01 -1.499999999999999944e-01 -1.499999999999999944e-01 -1.499999999999999944e-01 5.062880409280839933e-02 4.976572792697461778e-01 1.657613762033903759e+00 1.501478817437631674e+00 1.313769375146230933e+00 1.794123759714085997e+00 1.908349127048623695e+00 1.871944841980734520e+00 1.797324810991297817e+00 1.430813014480243117e+00 1.239737415426021672e+00 -8.183011294493897081e-02 -1.499999999999999944e-01 -1.499999999999999944e-01 -1.499999999999999944e-01 -1.499999999999999944e-01 -1.499999999999999944e-01 -1.499999999999999944e-01 -1.499999999999999944e-01 -1.499999999999999944e-01 -1.499999999999999944e-01 -1.499999999999999944e-01 -1.499999999999999944e-01 -1.499999999999999944e-01 -1.499999999999999944e-01 -1.499999999999999944e-01 -1.499999999999999944e-01 -1.499999999999999944e-01 5.883431964412966231e-01 1.484931458930427661e+00 1.874978738694981661e+00 8.962750511745112281e-01 1.515156538458436231e+00 1.713155192108812619e+00 1.827298043840259956e+00 1.773896235605764371e+00 1.328249882278713212e+00 1.504780604504004637e+00 1.004314409464021729e+00 -1.499999999999999944e-01 -1.499999999999999944e-01 -1.499999999999999944e-01 -1.499999999999999944e-01 -1.499999999999999944e-01 -1.499999999999999944e-01 -1.499999999999999944e-01 -1.499999999999999944e-01 -1.499999999999999944e-01 -1.499999999999999944e-01 -1.499999999999999944e-01 -1.499999999999999944e-01 -1.499999999999999944e-01 -1.499999999999999944e-01 -1.499999999999999944e-01 -1.499999999999999944e-01 -1.499999999999999944e-01 -1.499999999999999944e-01 4.117415757053997094e-01 4.396235999482647760e-01 1.501569504906015373e+00 1.720952123575575587e+00 1.956206449053799590e+00 1.952492658691486360e+00 1.844622822371972948e+00 1.452639609383976405e+00 1.003466681759485502e+00 2.681468854721261175e-01 -1.499999999999999944e-01 -1.499999999999999944e-01 -1.499999999999999944e-01 -1.499999999999999944e-01 -1.499999999999999944e-01 -1.499999999999999944e-01 -1.499999999999999944e-01 -1.499999999999999944e-01 -1.499999999999999944e-01 -1.499999999999999944e-01 -1.499999999999999944e-01 -1.499999999999999944e-01 -1.499999999999999944e-01 -1.499999999999999944e-01 -1.499999999999999944e-01 -1.499999999999999944e-01 1.515466981058156692e-01 -1.499999999999999944e-01 -1.499999999999999944e-01 1.041681502434805839e+00 1.614708034386580726e+00 1.930437538280878940e+00 1.970551301926399157e+00 1.902570701176771850e+00 1.706875004271609875e+00 1.128767340486093618e+00 3.664990212131791214e-02 -1.499999999999999944e-01 -1.499999999999999944e-01 -1.499999999999999944e-01 -1.499999999999999944e-01 -1.499999999999999944e-01 -1.499999999999999944e-01 -1.499999999999999944e-01 -1.499999999999999944e-01 -1.499999999999999944e-01 -1.499999999999999944e-01 -1.499999999999999944e-01 -1.499999999999999944e-01 -1.499999999999999944e-01 -1.499999999999999944e-01 -1.499999999999999944e-01 -1.499999999999999944e-01 -1.499999999999999944e-01 -1.499999999999999944e-01 -1.499999999999999944e-01 -1.499999999999999944e-01 6.706545313558529564e-01 1.774842339930691182e+00 1.966200218798569432e+00 1.998095938658872139e+00 1.900014234357224385e+00 1.244954549620878481e+00 5.585016689159123526e-01 -1.499999999999999944e-01 -1.499999999999999944e-01 -1.499999999999999944e-01 -1.499999999999999944e-01 -1.499999999999999944e-01 -1.499999999999999944e-01 -1.499999999999999944e-01 -1.499999999999999944e-01 -1.499999999999999944e-01 -1.499999999999999944e-01 -1.499999999999999944e-01 -1.499999999999999944e-01 -1.499999999999999944e-01 -1.499999999999999944e-01 -1.499999999999999944e-01 -1.499999999999999944e-01 -1.499999999999999944e-01 4.628934128292437333e-01 -1.499999999999999944e-01 -5.719613965042646964e-02 -1.499999999999999944e-01 1.037253645682287617e+00 1.753268627292244419e+00 1.969845836336120870e+00 1.999906525813593960e+00 1.886382917012778382e+00 5.402067488394248773e-01 -1.499999999999999944e-01 -1.499999999999999944e-01 -1.499999999999999944e-01 -1.499999999999999944e-01 -1.499999999999999944e-01 -1.499999999999999944e-01 -1.499999999999999944e-01 -1.499999999999999944e-01 -1.499999999999999944e-01 -1.499999999999999944e-01 -1.499999999999999944e-01 -1.499999999999999944e-01 -1.499999999999999944e-01 -1.499999999999999944e-01 -1.499999999999999944e-01 -1.499999999999999944e-01 -1.499999999999999944e-01 -1.499999999999999944e-01 4.695536039669279127e-02 -1.499999999999999944e-01 -1.499999999999999944e-01 -1.499999999999999944e-01 7.698954109361625386e-01 1.921568295434443518e+00 1.999955359733074367e+00 1.999968705512559675e+00 1.808942132817049409e+00 -4.967990180971060959e-02 -1.499999999999999944e-01 -1.499999999999999944e-01 -1.499999999999999944e-01 -1.499999999999999944e-01 -1.499999999999999944e-01 -1.499999999999999944e-01 -1.499999999999999944e-01 -1.499999999999999944e-01 -1.499999999999999944e-01 -1.499999999999999944e-01 -1.499999999999999944e-01 -1.499999999999999944e-01 -1.499999999999999944e-01 -1.499999999999999944e-01 -1.499999999999999944e-01 -1.499999999999999944e-01 -1.499999999999999944e-01 -1.499999999999999944e-01 -1.499999999999999944e-01 -1.499999999999999944e-01 -1.499999999999999944e-01 -1.499999999999999944e-01 1.287876665075022853e-01 1.910587754497860891e+00 1.999996067322759474e+00 1.999971712952027358e+00 1.644209630345683681e+00 -1.499999999999999944e-01 -1.499999999999999944e-01 -1.499999999999999944e-01 -1.499999999999999944e-01 -1.499999999999999944e-01 -1.499999999999999944e-01 -1.499999999999999944e-01 -1.499999999999999944e-01 -1.499999999999999944e-01 -1.499999999999999944e-01 -1.499999999999999944e-01 -1.499999999999999944e-01 -1.499999999999999944e-01 -1.499999999999999944e-01 -1.499999999999999944e-01 -1.499999999999999944e-01 -1.499999999999999944e-01 -1.499999999999999944e-01 -1.499999999999999944e-01 -1.499999999999999944e-01 -1.499999999999999944e-01 -1.499999999999999944e-01 -1.499999999999999944e-01 3.838982195906047723e-01 1.957130759169147582e+00 1.997037476710522341e+00 1.969465935454141947e+00 1.604575507972013204e+00 -1.499999999999999944e-01 -1.499999999999999944e-01 -1.499999999999999944e-01 -1.499999999999999944e-01 -1.499999999999999944e-01 -1.499999999999999944e-01 -1.499999999999999944e-01 -1.499999999999999944e-01 -1.499999999999999944e-01 -1.499999999999999944e-01 -1.499999999999999944e-01 -1.499999999999999944e-01 -1.499999999999999944e-01 -1.499999999999999944e-01 -1.499999999999999944e-01 -1.499999999999999944e-01 -1.499999999999999944e-01 -1.499999999999999944e-01 -1.499999999999999944e-01 -1.499999999999999944e-01 -1.499999999999999944e-01 -1.499999999999999944e-01 -1.499999999999999944e-01 1.217519583267064220e+00 1.994752172305475302e+00 1.997284800945191119e+00 1.954562887865753495e+00 1.113990549395443841e+00 -1.499999999999999944e-01 -1.499999999999999944e-01 -1.499999999999999944e-01 -1.499999999999999944e-01 -1.499999999999999944e-01 -1.499999999999999944e-01 -1.499999999999999944e-01 -1.499999999999999944e-01 -1.499999999999999944e-01 -1.499999999999999944e-01 -1.499999999999999944e-01 -1.499999999999999944e-01 -1.499999999999999944e-01 -1.499999999999999944e-01 -1.499999999999999944e-01 -1.499999999999999944e-01 -1.499999999999999944e-01 -1.499999999999999944e-01 -1.499999999999999944e-01 -1.499999999999999944e-01 -1.499999999999999944e-01 -1.499999999999999944e-01 -1.499999999999999944e-01 1.792015192446645644e+00 1.997083647105873272e+00 1.998338986244691862e+00 1.842542186162458240e+00 2.019341681013364087e-01 -1.499999999999999944e-01 -1.499999999999999944e-01 -8.989483583140478462e-02 -1.499999999999999944e-01 -1.499999999999999944e-01 -1.499999999999999944e-01 -1.499999999999999944e-01 -1.499999999999999944e-01 -1.499999999999999944e-01 -1.499999999999999944e-01 -1.499999999999999944e-01 -1.499999999999999944e-01 -1.499999999999999944e-01 -1.499999999999999944e-01 -1.499999999999999944e-01 -1.499999999999999944e-01 -1.499999999999999944e-01 -1.499999999999999944e-01 -1.499999999999999944e-01 -1.499999999999999944e-01 -1.499999999999999944e-01 -1.499999999999999944e-01 1.453662985840232125e+00 1.882678127794742196e+00 1.999782967533617839e+00 1.998886646344288254e+00 1.547681731916259018e+00 2.107033412133531014e-01 -1.499999999999999944e-01 8.681158357188450969e-02 -1.499999999999999944e-01 -1.499999999999999944e-01 -1.499999999999999944e-01 -1.499999999999999944e-01 -1.499999999999999944e-01 -1.499999999999999944e-01 -1.499999999999999944e-01 -1.499999999999999944e-01 -1.499999999999999944e-01 -1.499999999999999944e-01 -1.499999999999999944e-01 -1.499999999999999944e-01 -1.499999999999999944e-01 -1.499999999999999944e-01 -1.499999999999999944e-01 -1.499999999999999944e-01 -1.499999999999999944e-01 -1.499999999999999944e-01 -1.499999999999999944e-01 1.007193468361378352e+00 1.503169806574593537e+00 1.970657696945101289e+00 1.992220356286070970e+00 1.950007338129849721e+00 1.525956288889572354e+00 1.278082420729007351e+00 -1.255379208366821653e-01 -5.176230625748368119e-02 -9.975432392746841348e-03 -8.212536448368873421e-02 -1.499999999999999944e-01 -1.499999999999999944e-01 -1.499999999999999944e-01 -1.499999999999999944e-01 -1.499999999999999944e-01 -1.499999999999999944e-01 -1.499999999999999944e-01 -1.499999999999999944e-01 -1.499999999999999944e-01 -1.499999999999999944e-01 -1.499999999999999944e-01 -1.499999999999999944e-01 -1.499999999999999944e-01 -1.499999999999999944e-01 -1.499999999999999944e-01 -1.499999999999999944e-01 -1.499999999999999944e-01 1.247324916852046384e+00 1.758416449916078594e+00 1.977041496283540978e+00 1.974001848202904474e+00 1.820404526525404298e+00 1.170882977853314744e+00 1.478413647626626082e+00 6.427809004551195970e-01 6.442861353163138460e-01 8.721862992378932589e-01 1.991466716823423466e-01 -1.499999999999999944e-01 -1.499999999999999944e-01 -1.499999999999999944e-01 -1.499999999999999944e-01 -1.499999999999999944e-01 -1.499999999999999944e-01 -1.499999999999999944e-01 -1.499999999999999944e-01 -1.499999999999999944e-01 -1.499999999999999944e-01 -1.499999999999999944e-01 -1.499999999999999944e-01 -1.499999999999999944e-01 -1.499999999999999944e-01 -1.499999999999999944e-01 -1.499999999999999944e-01 4.118294959482894368e-01 1.546504865762475145e+00 1.828310145369415718e+00 1.983002687528077068e+00 1.899948178779965469e+00 1.580518842536002611e+00 1.130582471085426199e+00 1.525264087029713389e+00 7.993160260465326239e-01 -9.111066639871520656e-02 2.737415118892891908e-01 2.050363378425213434e-01 -1.499999999999999944e-01 -1.499999999999999944e-01 -1.499999999999999944e-01 -1.499999999999999944e-01 -1.499999999999999944e-01 -1.499999999999999944e-01 -1.499999999999999944e-01 -1.499999999999999944e-01 -1.499999999999999944e-01 -1.499999999999999944e-01 -1.499999999999999944e-01 -1.499999999999999944e-01 -1.499999999999999944e-01 -1.465457755990277611e-01 -1.499999999999999944e-01 -1.499999999999999944e-01 1.333718126138605742e+00 1.761517348455807985e+00 1.875391777683401484e+00 1.978330974789812347e+00 1.720303825745066240e+00 1.412716738553403184e+00 1.065331922720098579e+00 7.461467305301786590e-01 8.895236209514285619e-01 6.856959285393802173e-01 -1.499999999999999944e-01 -1.499999999999999944e-01 -1.499999999999999944e-01 -1.499999999999999944e-01 -1.499999999999999944e-01 -1.499999999999999944e-01 -1.499999999999999944e-01 -1.499999999999999944e-01 -1.499999999999999944e-01 -1.499999999999999944e-01 -1.499999999999999944e-01 -1.499999999999999944e-01 -1.499999999999999944e-01 -1.499999999999999944e-01 -1.499999999999999944e-01 -1.499999999999999944e-01 -1.499999999999999944e-01 -1.499999999999999944e-01 9.953282392652060828e-01 1.790176845890633084e+00 1.980265492113650216e+00 1.940199256089758295e+00 1.471761061517868230e+00 1.585852325219506698e+00 3.781084715866957491e-01 8.975510766656094042e-01 8.076826530484193523e-01 3.612214211776040296e-01 -1.145580600238449848e-01 -1.013541641463840681e-01 1.717090148570311059e-01 -1.499999999999999944e-01 -1.499999999999999944e-01 -1.499999999999999944e-01 -1.499999999999999944e-01 -1.499999999999999944e-01 -1.499999999999999944e-01 -1.499999999999999944e-01 -1.499999999999999944e-01 -1.499999999999999944e-01 -1.499999999999999944e-01 -1.499999999999999944e-01 -1.499999999999999944e-01 -1.499999999999999944e-01 -1.499999999999999944e-01 -1.499999999999999944e-01 1.545954420076012914e+00 1.837295346830206677e+00 1.942689358381828990e+00 1.925131060596080301e+00 1.678643437654989690e+00 1.268874220062899072e+00 9.253323627980252208e-01 1.073029771346226013e+00 1.619663908215381032e-01 1.222876286903572945e-01 2.503901666653946673e-02 -1.499999999999999944e-01 -1.499999999999999944e-01 -1.499999999999999944e-01 -1.499999999999999944e-01 -1.499999999999999944e-01 -1.499999999999999944e-01 -1.499999999999999944e-01 -1.499999999999999944e-01 -1.499999999999999944e-01 -1.499999999999999944e-01 -1.499999999999999944e-01 -1.499999999999999944e-01 -1.499999999999999944e-01 -1.499999999999999944e-01 -1.499999999999999944e-01 -1.499999999999999944e-01 5.968005131553044684e-04 6.685137095816591213e-01 1.669776634714294383e+00 1.758061495790681494e+00 1.801209975342310310e+00 1.115434530940486280e+00 6.278420963766411234e-01 8.359418992218744515e-01 -1.269353914484104839e-01 4.361064716852310341e-01 4.045383859686667583e-01 -1.499999999999999944e-01 -1.499999999999999944e-01 -1.499999999999999944e-01 -1.499999999999999944e-01 -1.499999999999999944e-01 -1.499999999999999944e-01 -1.499999999999999944e-01 -1.499999999999999944e-01 -1.499999999999999944e-01 -1.499999999999999944e-01 -1.499999999999999944e-01 -1.499999999999999944e-01 -1.499999999999999944e-01 -1.499999999999999944e-01 -1.499999999999999944e-01 -1.499999999999999944e-01 -1.499999999999999944e-01 -1.499999999999999944e-01 -1.499999999999999944e-01 7.480131528466600344e-01 4.075005997101361910e-01 2.678163612369113822e-01 -1.499999999999999944e-01 -1.499999999999999944e-01 -1.499999999999999944e-01 -1.499999999999999944e-01 -1.499999999999999944e-01 -1.499999999999999944e-01 -1.499999999999999944e-01 -1.499999999999999944e-01 -1.499999999999999944e-01 -1.499999999999999944e-01 -1.499999999999999944e-01 -1.499999999999999944e-01 -1.499999999999999944e-01 -1.499999999999999944e-01 -1.499999999999999944e-01 -1.499999999999999944e-01 -1.499999999999999944e-01 -1.499999999999999944e-01 -1.499999999999999944e-01 -1.499999999999999944e-01 -1.499999999999999944e-01 -1.499999999999999944e-01 -1.499999999999999944e-01 -1.499999999999999944e-01 -1.499999999999999944e-01 -1.499999999999999944e-01 -1.499999999999999944e-01 -1.499999999999999944e-01 -1.499999999999999944e-01 -1.499999999999999944e-01 -1.499999999999999944e-01 -1.499999999999999944e-01 -1.499999999999999944e-01 -1.499999999999999944e-01 -1.499999999999999944e-01 -1.499999999999999944e-01 -1.499999999999999944e-01 -1.499999999999999944e-01 -1.499999999999999944e-01 -1.499999999999999944e-01 -1.499999999999999944e-01 -1.499999999999999944e-01 -1.499999999999999944e-01 -1.499999999999999944e-01 -1.499999999999999944e-01 -1.499999999999999944e-01 -1.499999999999999944e-01 -1.499999999999999944e-01 -1.499999999999999944e-01 -1.499999999999999944e-01 -1.499999999999999944e-01 -1.499999999999999944e-01 -1.499999999999999944e-01 -1.499999999999999944e-01 -1.499999999999999944e-01 -1.499999999999999944e-01 -1.499999999999999944e-01 -1.499999999999999944e-01 -1.499999999999999944e-01 -1.499999999999999944e-01 -1.499999999999999944e-01 -1.499999999999999944e-01 -1.499999999999999944e-01 -1.499999999999999944e-01 -1.499999999999999944e-01 -1.499999999999999944e-01 -1.499999999999999944e-01 -1.499999999999999944e-01 -1.499999999999999944e-01 -1.499999999999999944e-01 -1.499999999999999944e-01
-1.499999999999999944e-01 -1.499999999999999944e-01 -1.499999999999999944e-01 -1.499999999999999944e-01 -1.499999999999999944e-01 -1.499999999999999944e-01 -1.499999999999999944e-01 -1.499999999999999944e-01 -1.499999999999999944e-01 -1.499999999999999944e-01 -1.499999999999999944e-01 -1.499999999999999944e-01 -1.499999999999999944e-01 -1.499999999999999944e-01 -1.499999999999999944e-01 -1.499999999999999944e-01 -1.499999999999999944e-01 -1.499999999999999944e-01 -1.499999999999999944e-01 -1.499999999999999944e-01 -1.499999999999999944e-01 -1.499999999999999944e-01 -1.499999999999999944e-01 -1.499999999999999944e-01 -1.499999999999999944e-01 -1.499999999999999944e-01 -1.499999999999999944e-01 -1.499999999999999944e-01 -1.499999999999999944e-01 -1.499999999999999944e-01 -1.499999999999999944e-01 -1.499999999999999944e-01 -1.499999999999999944e-01 -1.499999999999999944e-01 -1.499999999999999944e-01 -1.499999999999999944e-01 -1.499999999999999944e-01 -1.499999999999999944e-01 -1.499999999999999944e-01 -1.499999999999999944e-01 -1.499999999999999944e-01 -1.499999999999999944e-01 -1.499999999999999944e-01 -1.499999999999999944e-01 -1.499999999999999944e-01 -1.499999999999999944e-01 -1.499999999999999944e-01 -1.499999999999999944e-01 -1.499999999999999944e-01 -1.499999999999999944e-01 -1.499999999999999944e-01 -1.499999999999999944e-01 -1.499999999999999944e-01 -1.499999999999999944e-01 -1.499999999999999944e-01 -1.499999999999999944e-01 -1.499999999999999944e-01 -1.499999999999999944e-01 -1.499999999999999944e-01 -1.499999999999999944e-01 -1.499999999999999944e-01 -1.499999999999999944e-01 -1.499999999999999944e-01 -1.499999999999999944e-01 -1.499999999999999944e-01 -1.043356726180737770e-01 -1.499999999999999944e-01 6.770431034371344747e-01 -1.499999999999999944e-01 -1.821382912524255326e-02 -1.499999999999999944e-01 -1.499999999999999944e-01 -1.499999999999999944e-01 -1.499999999999999944e-01 -1.499999999999999944e-01 -1.499999999999999944e-01 -1.499999999999999944e-01 -1.499999999999999944e-01 -1.499999999999999944e-01 -1.499999999999999944e-01 -1.499999999999999944e-01 -1.499999999999999944e-01 -1.499999999999999944e-01 -1.499999999999999944e-01 -1.499999999999999944e-01 -1.499999999999999944e-01 -1.499999999999999944e-01 -1.499999999999999944e-01 -1.499999999999999944e-01 -1.499999999999999944e-01 -1.499999999999999944e-01 5.754838127355033084e-02 -1.499999999999999944e-01 -2.486095174194113966e-02 1.589336393540755621e-01 1.422538488033700199e+00 1.139347459674530771e+00 1.498509720343680351e+00 3.814760189837362869e-01 1.145762678666287226e-01 3.413105461800710616e-01 6.542488893398052952e-01 -1.499999999999999944e-01 -1.499999999999999944e-01 -1.499999999999999944e-01 -1.499999999999999944e-01 -1.499999999999999944e-01 -1.499999999999999944e-01 -1.499999999999999944e-01 -1.499999999999999944e-01 -1.499999999999999944e-01 -1.499999999999999944e-01 -1.499999999999999944e-01 -1.499999999999999944e-01 -1.499999999999999944e-01 -1.499999999999999944e-01 -1.499999999999999944e-01 -1.499999999999999944e-01 -1.417861903163798176e-01 -6.508655937547377923e-02 1.964310276155465385e-01 1.258167430514089746e+00 1.227856459288367397e+00 1.343317711112696822e+00 1.587786148250396323e+00 1.731102881945335126e+00 1.231278582481373229e+00 6.121448315631525805e-01 6.087242658842746401e-01 9.419626948921595577e-01 1.018956195672404974e-01 -1.499999999999999944e-01 -4.418847281612403588e-02 -1.499999999999999944e-01 -1.499999999999999944e-01 -1.499999999999999944e-01 -1.499999999999999944e-01 -1.499999999999999944e-01 -1.499999999999999944e-01 -1.499999999999999944e-01 -1.499999999999999944e-01 -1.499999999999999944e-01 -1.499999999999999944e-01 -1.499999999999999944e-01 -1.499999999999999944e-01 -1.499999999999999944e-01 -1.499999999999999944e-01 2.840934704430708724e-01 1.277489663741574688e+00 1.513729295094623950e+00 1.744938312615376130e+00 1.701894412142677782e+00 1.704231302265745152e+00 1.731121900366765942e+00 1.543125455573455929e+00 1.641419011535505623e+00 1.677491271886556445e+00 1.337749699297473782e+00 7.796712731359773940e-01 1.687279343455515002e-01 1.623415865264775104e-01 -1.499999999999999944e-01 -1.499999999999999944e-01 -1.499999999999999944e-01 -1.499999999999999944e-01 -1.499999999999999944e-01 -1.499999999999999944e-01 -1.499999999999999944e-01 -1.499999999999999944e-01 -1.499999999999999944e-01 -1.499999999999999944e-01 -1.499999999999999944e-01 -1.499999999999999944e-01 -1.499999999999999944e-01 3.982510021741902939e-02 7.257453821540456040e-01 1.376586200034369822e+00 1.714946214849277117e+00 1.868207608926131469e+00 1.919583397156038984e+00 1.825708006631882485e+00 1.861682409611659983e+00 1.731429127822650127e+00 1.769685089388548516e+00 1.835875443226274717e+00 1.737221581258556080e+00 1.517250002652661189e+00 1.151249699624958378e+00 4.292526761752725184e-01 -2.799822024411896537e-03 -1.499999999999999944e-01 -1.499999999999999944e-01 -1.499999999999999944e-01 -1.499999999999999944e-01 -1.499999999999999944e-01 -1.499999999999999944e-01 -1.499999999999999944e-01 -1.499999999999999944e-01 -1.499999999999999944e-01 -1.499999999999999944e-01 -1.499999999999999944e-01 9.848369295313458283e-01 1.394961031763769510e+00 1.566717745390456162e+00 1.631951638348592137e+00 1.876512841074694071e+00 1.889141747604091925e+00 1.880959238256482813e+00 1.806448701614049801e+00 1.851552937671133714e+00 1.833557452212662309e+00 1.876888168862213435e+00 1.906946248769337160e+00 1.856403576448090620e+00 1.693326072925098513e+00 1.391133487768620558e+00 8.782005652906044180e-01 6.789111608402724762e-01 -1.499999999999999944e-01 -1.499999999999999944e-01 -1.499999999999999944e-01 -1.499999999999999944e-01 -1.499999999999999944e-01 -1.499999999999999944e-01 -1.499999999999999944e-01 -1.499999999999999944e-01 -1.499999999999999944e-01 -1.499999999999999944e-01 2.563997269529807999e-01 1.273781070617920896e+00 1.657539007730209901e+00 1.790584363802860457e+00 1.875449012691930761e+00 1.895066346386750977e+00 1.863531052625903683e+00 1.808980392395985071e+00 1.744081889074674541e+00 1.738617195344666300e+00 1.726730516504401347e+00 1.729817272611801515e+00 1.678485254309448393e+00 1.812681267141238894e+00 1.761458191481433344e+00 1.250891944696225222e+00 1.215852335612172652e+00 7.141525018757582943e-02 -1.499999999999999944e-01 -1.499999999999999944e-01 -1.499999999999999944e-01 -1.499999999999999944e-01 -1.499999999999999944e-01 -1.499999999999999944e-01 -1.499999999999999944e-01 -1.499999999999999944e-01 -1.499999999999999944e-01 -1.499999999999999944e-01 -2.721344567415753118e-02 1.285144829919199205e+00 1.466932577177850971e+00 1.530259832631032380e+00 1.799863340234423070e+00 1.618757546893227373e+00 1.643255344610757174e+00 1.435423849099472848e+00 1.452360280762188705e+00 1.156302921135025530e+00 1.255829450730513441e+00 1.294763326490241173e+00 1.608954715137218994e+00 1.798473771106976704e+00 1.617116423469562969e+00 1.357775891295147863e+00 1.407716833922785904e+00 5.655824099099520108e-01 -1.499999999999999944e-01 -1.499999999999999944e-01 -1.499999999999999944e-01 -1.499999999999999944e-01 -1.499999999999999944e-01 -1.499999999999999944e-01 -1.499999999999999944e-01 -1.499999999999999944e-01 -1.499999999999999944e-01 -1.499999999999999944e-01 -1.499999999999999944e-01 1.161354853017255939e+00 1.039993688562264484e+00 1.205028394213227827e+00 8.741034478535676389e-01 3.342590816371608931e-01 5.189978060432163254e-01 4.886466162146619330e-01 1.197560308378159966e-01 7.769774800232682743e-01 1.144850613722367072e+00 1.525050084885841928e+00 1.613417568185551154e+00 1.892556200500322472e+00 1.742393425112606309e+00 1.458282157027211312e+00 1.155469272378828904e+00 2.908722589562977023e-01 -1.499999999999999944e-01 -1.499999999999999944e-01 -1.499999999999999944e-01 -1.499999999999999944e-01 -1.499999999999999944e-01 -1.499999999999999944e-01 -1.499999999999999944e-01 -1.499999999999999944e-01 -1.499999999999999944e-01 -1.499999999999999944e-01 -1.499999999999999944e-01 -3.555916966861111250e-02 5.086530131891240369e-01 -8.530366895844465613e-03 -1.499999999999999944e-01 -1.499999999999999944e-01 -1.352899478883118345e-01 3.932087423652134150e-01 4.988154143584065392e-01 1.086641215923392911e+00 1.248030958648117750e+00 1.417515437008788792e+00 1.802226340120908876e+00 1.816979111621993770e+00 1.800107734872738563e+00 1.533390758477703564e+00 1.484628538352126936e+00 2.168708878775325588e-01 -1.499999999999999944e-01 -1.499999999999999944e-01 -1.499999999999999944e-01 -1.499999999999999944e-01 -1.499999999999999944e-01 -1.499999999999999944e-01 -1.499999999999999944e-01 -1.499999999999999944e-01 -1.499999999999999944e-01 -1.499999999999999944e-01 -1.499999999999999944e-01 -1.499999999999999944e-01 -7.785131326882373248e-02 -1.499999999999999944e-01 -1.499999999999999944e-01 -3.575449547628770097e-02 -1.232565845372325941e-01 1.012929335540313058e+00 1.292494059387704564e+00 1.745779809728664755e+00 1.610130262964238002e+00 1.759059849962600008e+00 1.802702421333064908e+00 1.851937596721981105e+00 1.684661659184674143e+00 1.414025417715849331e+00 8.903786930760342333e-01 -1.499999999999999944e-01 -1.499999999999999944e-01 -1.499999999999999944e-01 -1.499999999999999944e-01 -1.499999999999999944e-01 -1.499999999999999944e-01 -1.499999999999999944e-01 -1.499999999999999944e-01 -1.499999999999999944e-01 -1.499999999999999944e-01 -1.499999999999999944e-01 -1.499999999999999944e-01 -1.499999999999999944e-01 -1.499999999999999944e-01 -1.140640023252571245e-01 -1.499999999999999944e-01 2.695147061815987843e-01 3.589108695448532393e-01 1.270515399681277913e+00 1.409719448904113825e+00 1.787273331572220902e+00 1.830515121199771889e+00 1.910741494515495242e+00 1.762852751740090484e+00 1.691629668998951397e+00 1.455183781317644032e+00 1.147253060624382481e+00 9.535763463986945965e-01 -1.259084259684566109e-01 -1.499999999999999944e-01 -1.499999999999999944e-01 -1.329688069549770646e-01 -1.499999999999999944e-01 4.719760582849719110e-02 -1.499999999999999944e-01 -1.499999999999999944e-01 -1.499999999999999944e-01 -1.499999999999999944e-01 -1.499999999999999944e-01 -1.499999999999999944e-01 -1.499999999999999944e-01 -1.499999999999999944e-01 -1.499999999999999944e-01 4.048800402145137367e-01 -1.130813433570486692e-01 1.195813926833564356e+00 1.682573170879555713e+00 1.515873372137626518e+00 1.829275955375383012e+00 1.819208241658274217e+00 1.885403009238907579e+00 1.697753053387268452e+00 1.045368100901826969e+00 1.111508364884459032e+00 1.302133597014875299e+00 1.891897126313502042e-01 -2.482397385254719868e-02 -9.443173570950058604e-02 2.457958286095547340e-01 5.764509563997721742e-02 6.413868048027349111e-01 2.639018808002991934e-01 -1.499999999999999944e-01 -1.499999999999999944e-01 -1.499999999999999944e-01 -1.499999999999999944e-01 -1.499999999999999944e-01 -1.499999999999999944e-01 -1.499999999999999944e-01 -4.940287825016687062e-02 5.049410190020098277e-01 1.098332594583294908e+00 1.405413674555051617e+00 1.620615848373017753e+00 1.633560235897741908e+00 1.726133508658121762e+00 1.822883965743635537e+00 1.778820693609373116e+00 1.631152925736249815e+00 1.202256160780813543e+00 1.157215167190656757e+00 1.220303841100072839e+00 1.476892256584851015e+00 1.426999073041125721e+00 1.061635896891564013e+00 9.646974342371299471e-01 1.022893735312151220e+00 1.049619786923598364e+00 5.305627222583040314e-01 6.429403427240842905e-01 4.152860499491125568e-01 -1.499999999999999944e-01 -1.499999999999999944e-01 -1.499999999999999944e-01 -1.499999999999999944e-01 -1.499999999999999944e-01 -1.499999999999999944e-01 -1.499999999999999944e-01 1.012556250154285520e+00 1.509782217782727587e+00 1.535003946971918998e+00 1.462545485553214286e+00 1.683103756375295301e+00 1.662153845985554490e+00 1.705769034878924284e+00 1.778453851548998044e+00 1.649436972098856202e+00 1.374068714698995386e+00 1.397655913750392109e+00 1.563973498139372476e+00 1.569950355016214161e+00 1.470870639211306230e+00 1.306882445560172190e+00 1.548103221092843818e+00 1.705309707573198663e+00 1.401667655388371569e+00 4.339286382011015020e-01 3.380044813673965809e-02 -1.499999999999999944e-01 -1.499999999999999944e-01 -1.499999999999999944e-01 -1.499999999999999944e-01 -1.499999999999999944e-01 -1.499999999999999944e-01 -1.499999999999999944e-01 1.224064160656727740e+00 1.592077049856937432e+00 1.749575300624790275e+00 1.649709603404632130e+00 1.602210569675119434e+00 1.764317513858718378e+00 1.771997241237056375e+00 1.782510045103499419e+00 1.709422677561929227e+00 1.518180493079402726e+00 1.383896570001455162e+00 1.642479455000199096e+00 1.639311291301176254e+00 1.629565593632698262e+00 1.564882123882244569e+00 1.464396319960138859e+00 1.746920233457462279e+00 1.689553548121044857e+00 1.435915072463625597e+00 4.057765717570539499e-01 4.505955784424615085e-01 -1.499999999999999944e-01 -1.499999999999999944e-01 -1.499999999999999944e-01 -1.499999999999999944e-01 -1.499999999999999944e-01 -1.499999999999999944e-01 -1.499999999999999944e-01 1.249557358835793774e+00 1.709263431826546276e+00 1.824565698718624285e+00 1.826305586404428638e+00 1.783068174440984643e+00 1.909303726574054894e+00 1.896378284334411468e+00 1.818930405201630407e+00 1.815388637088019008e+00 1.814602747209524525e+00 1.844180667622731473e+00 1.495924908650103857e+00 1.725475686256349395e+00 1.847399183408794165e+00 1.698930238404526616e+00 1.795307186714287129e+00 1.672706998953424229e+00 1.747625337661052214e+00 1.465325240553927211e+00 1.024695350597881527e+00 -1.499999999999999944e-01 -1.499999999999999944e-01 -1.499999999999999944e-01 -1.499999999999999944e-01 -1.499999999999999944e-01 -1.499999999999999944e-01 -1.499999999999999944e-01 3.705229045673307242e-01 1.328769534959227894e+00 1.783227886555975639e+00 1.785639151906533550e+00 1.820471856692016166e+00 1.768323837650447761e+00 1.914907999574577468e+00 1.902053703204641844e+00 1.800656711737931737e+00 1.748177643958958694e+00 1.848289382147644488e+00 1.924691834962302339e+00 1.903205695244493123e+00 1.878028551590010364e+00 1.845236196220346514e+00 1.805548228091245822e+00 1.680745657236057289e+00 1.316576333278671518e+00 1.278834439991371141e+00 3.349033317552619349e-01 4.668667259068511322e-01 1.540321735949247706e-01 2.406062562879551781e-02 -1.499999999999999944e-01 -1.499999999999999944e-01 -1.499999999999999944e-01 1.807304976608195557e-02 -1.499999999999999944e-01 -1.499999999999999944e-01 1.399894066878057508e+00 1.570594129403558803e+00 1.662275536819721733e+00 1.610192515689481851e+00 1.759614836624535661e+00 1.841841033615221557e+00 1.853612154698173420e+00 1.717290265592929410e+00 1.711929534368702654e+00 1.742500144514256499e+00 1.868568480985497438e+00 1.850921749585747511e+00 1.758902338055368775e+00 1.771638523111479291e+00 1.752799477957273089e+00 1.356398361207544756e+00 1.063892048805124224e+00 -1.499999999999999944e-01 -1.499999999999999944e-01 -1.499999999999999944e-01 -1.499999999999999944e-01 -1.499999999999999944e-01 -1.499999999999999944e-01 -1.499999999999999944e-01 -1.499999999999999944e-01 -1.499999999999999944e-01 -1.499999999999999944e-01 5.597523363044801248e-02 1.351956418801524284e+00 1.416546816808153197e+00 1.566592999157358390e+00 1.645656035452340182e+00 1.496457481927046196e+00 1.741413047357128319e+00 1.781855854855307175e+00 1.728399500278838818e+00 1.743061164041502575e+00 1.840609892631946964e+00 1.806678308822145640e+00 1.784306216985261706e+00 1.790544532845431691e+00 1.759454591321541139e+00 1.141567753271192753e+00 1.101225601695466683e+00 3.980108725683104698e-01 6.048332111220793283e-01 -1.499999999999999944e-01 3.405682346229308433e-01 -1.319116966313804429e-01 -1.499999999999999944e-01 -1.499999999999999944e-01 -1.499999999999999944e-01 -1.499999999999999944e-01 -1.499999999999999944e-01 -1.499999999999999944e-01 -1.499999999999999944e-01 7.968343184544121605e-02 6.745174896764232209e-01 6.716186163776902696e-01 1.344141685151905685e+00 1.505906786260539088e+00 1.621331087821012540e+00 1.737467099015506777e+00 1.698848804503520604e+00 1.670870467165776807e+00 1.608496601528565773e+00 1.646794398780230484e+00 1.333112124934081155e+00 1.112490469519418212e+00 6.499173226502058531e-02 1.185708344771134737e-01 4.712925957167603541e-01 2.436041004631155915e-01 8.269647111261002603e-02 4.000895493397081948e-01 -1.499999999999999944e-01 -1.499999999999999944e-01 -1.499999999999999944e-01 -1.499999999999999944e-01 -1.499999999999999944e-01 -1.499999999999999944e-01 -1.499999999999999944e-01 -1.499999999999999944e-01 -1.499999999999999944e-01 -1.499999999999999944e-01 -1.499999999999999944e-01 -1.499999999999999944e-01 3.398492105618215464e-01 1.226626345279587138e+00 1.260981544769009810e+00 1.348368360594949689e+00 7.535013732055059199e-01 4.411595214607618720e-01 2.487709131957906161e-01 -1.499999999999999944e-01 5.457122002558059126e-01 9.485504454381565864e-01 4.552326596274208770e-02 -1.499999999999999944e-01 -1.499999999999999944e-01 -6.714148925635096687e-02 -2.412668172559317981e-02 -1.499999999999999944e-01 -1.499999999999999944e-01 -1.499999999999999944e-01 -1.499999999999999944e-01 -1.499999999999999944e-01 -1.499999999999999944e-01 -1.499999999999999944e-01 -1.499999999999999944e-01 -1.499999999999999944e-01 -1.499999999999999944e-01 -1.499999999999999944e-01 -1.499999999999999944e-01 -1.499999999999999944e-01 -1.499999999999999944e-01 -1.194603244399173453e-01 3.687239655907962876e-01 -1.499999999999999944e-01 -1.499999999999999944e-01 -1.499999999999999944e-01 -1.499999999999999944e-01 -1.499999999999999944e-01 -1.499999999999999944e-01 -1.499999999999999944e-01 -1.499999999999999944e-01 -1.499999999999999944e-01 -1.499999999999999944e-01 -1.499999999999999944e-01 -1.499999999999999944e-01 -1.499999999999999944e-01 -1.499999999999999944e-01 -1.499999999999999944e-01 -1.499999999999999944e-01 -1.499999999999999944e-01 -1.499999999999999944e-01 -1.499999999999999944e-01 -1.499999999999999944e-01 -1.499999999999999944e-01 -1.499999999999999944e-01 -1.499999999999999944e-01 -1.499999999999999944e-01 -1.499999999999999944e-01 -1.499999999999999944e-01 -1.499999999999999944e-01 -1.499999999999999944e-01 -1.499999999999999944e-01 -1.499999999999999944e-01 -1.499999999999999944e-01 -1.499999999999999944e-01 -1.499999999999999944e-01 -1.499999999999999944e-01 -1.499999999999999944e-01 -1.499999999999999944e-01 -1.499999999999999944e-01 -1.499999999999999944e-01 -1.499999999999999944e-01 -1.499999999999999944e-01 -1.499999999999999944e-01 -1.499999999999999944e-01 -1.499999999999999944e-01 -1.499999999999999944e-01 -1.499999999999999944e-01 -1.499999999999999944e-01 -1.499999999999999944e-01 -1.499999999999999944e-01 -1.499999999999999944e-01 -1.499999999999999944e-01 -1.499999999999999944e-01 -1.499999999999999944e-01 -1.499999999999999944e-01 -1.499999999999999944e-01 -1.499999999999999944e-01 -1.499999999999999944e-01 -1.499999999999999944e-01 -1.499999999999999944e-01 -1.499999999999999944e-01 -1.499999999999999944e-01 -1.499999999999999944e-01 -1.499999999999999944e-01 -1.499999999999999944e-01 -1.499999999999999944e-01 -1.499999999999999944e-01 -1.499999999999999944e-01 -1.499999999999999944e-01 -1.499999999999999944e-01 -1.499999999999999944e-01 -1.499999999999999944e-01 -1.499999999999999944e-01 -1.499999999999999944e-01 -1.499999999999999944e-01 -1.499999999999999944e-01 -1.499999999999999944e-01 -1.499999999999999944e-01 -1.499999999999999944e-01 -1.499999999999999944e-01 -1.499999999999999944e-01 -1.499999999999999944e-01 -1.499999999999999944e-01 -1.499999999999999944e-01 -1.499999999999999944e-01 -1.499999999999999944e-01 -1.499999999999999944e-01 -1.499999999999999944e-01 -1.499999999999999944e-01 -1.499999999999999944e-01 -1.499999999999999944e-01 -1.499999999999999944e-01 -1.499999999999999944e-01 -1.499999999999999944e-01 -1.499999999999999944e-01 -1.499999999999999944e-01 -1.499999999999999944e-01 -1.499999999999999944e-01 -1.499999999999999944e-01 -1.499999999999999944e-01 -1.499999999999999944e-01 -1.499999999999999944e-01
-1.499999999999999944e-01 -1.499999999999999944e-01 -1.499999999999999944e-01 -1.499999999999999944e-01 -1.499999999999999944e-01 -1.499999999999999944e-01 -1.499999999999999944e-01 -1.499999999999999944e-01 -1.499999999999999944e-01 -1.499999999999999944e-01 -1.499999999999999944e-01 -1.499999999999999944e-01 -1.499999999999999944e-01 -1.499999999999999944e-01 -1.499999999999999944e-01 -1.499999999999999944e-01 -1.499999999999999944e-01 -1.499999999999999944e-01 -1.499999999999999944e-01 -1.499999999999999944e-01 -1.499999999999999944e-01 -1.499999999999999944e-01 -1.499999999999999944e-01 -1.499999999999999944e-01 -1.499999999999999944e-01 -1.499999999999999944e-01 -1.499999999999999944e-01 -1.499999999999999944e-01 -1.499999999999999944e-01 -1.499999999999999944e-01 -1.499999999999999944e-01 -1.499999999999999944e-01 -1.499999999999999944e-01 -1.499999999999999944e-01 -1.499999999999999944e-01 -1.499999999999999944e-01 -1.499999999999999944e-01 -1.499999999999999944e-01 -1.499999999999999944e-01 -1.499999999999999944e-01 -1.499999999999999944e-01 -1.499999999999999944e-01 -1.499999999999999944e-01 -1.499999999999999944e-01 -1.499999999999999944e-01 -1.499999999999999944e-01 -1.499999999999999944e-01 -1.499999999999999944e-01 -1.499999999999999944e-01 -1.499999999999999944e-01 -1.499999999999999944e-01 -1.499999999999999944e-01 -1.499999999999999944e-01 -1.499999999999999944e-01 -1.499999999999999944e-01 -1.499999999999999944e-01 -1.499999999999999944e-01 -1.499999999999999944e-01 -1.499999999999999944e-01 -1.499999999999999944e-01 -1.499999999999999944e-01 -1.499999999999999944e-01 -1.499999999999999944e-01 -1.499999999999999944e-01 -1.499999999999999944e-01 -1.499999999999999944e-01 -1.499999999999999944e-01 -1.499999999999999944e-01 -1.499999999999999944e-01 -1.499999999999999944e-01 -1.499999999999999944e-01 -1.499999999999999944e-01 -1.499999999999999944e-01 -1.499999999999999944e-01 -1.499999999999999944e-01 -1.499999999999999944e-01 -1.499999999999999944e-01 -1.499999999999999944e-01 -1.499999999999999944e-01 -1.499999999999999944e-01 -1.499999999999999944e-01 -1.499999999999999944e-01 -1.499999999999999944e-01 -1.499999999999999944e-01 -1.499999999999999944e-01 -1.499999999999999944e-01 -1.499999999999999944e-01 -1.499999999999999944e-01 -1.499999999999999944e-01 -1.499999999999999944e-01 -1.499999999999999944e-01 -1.499999999999999944e-01 -1.499999999999999944e-01 -1.499999999999999944e-01 -1.499999999999999944e-01 4.173766555979186998e-01 4.721785665686303868e-01 4.170174086414285552e-01 -9.457676582608132154e-02 -1.499999999999999944e-01 -1.499999999999999944e-01 -1.499999999999999944e-01 -1.499999999999999944e-01 -1.499999999999999944e-01 -1.499999999999999944e-01 -1.499999999999999944e-01 -1.499999999999999944e-01 -1.499999999999999944e-01 -1.499999999999999944e-01 -1.499999999999999944e-01 -1.499999999999999944e-01 -1.499999999999999944e-01 -1.499999999999999944e-01 -1.499999999999999944e-01 -1.499999999999999944e-01 -1.499999999999999944e-01 -1.499999999999999944e-01 -1.499999999999999944e-01 -1.499999999999999944e-01 -1.499999999999999944e-01 -1.499999999999999944e-01 -1.499999999999999944e-01 3.676741121538845136e-01 1.509108345249946748e+00 1.744023873322375628e+00 1.698755862898656765e+00 1.671119389698321189e+00 1.244304878818185633e+00 1.359934334065056483e+00 1.336706518130320820e+00 -1.499999999999999944e-01 -1.499999999999999944e-01 -1.499999999999999944e-01 -1.499999999999999944e-01 -1.499999999999999944e-01 -1.499999999999999944e-01 -1.499999999999999944e-01 -1.499999999999999944e-01 -1.499999999999999944e-01 -1.499999999999999944e-01 -1.499999999999999944e-01 -1.499999999999999944e-01 -1.499999999999999944e-01 -1.499999999999999944e-01 -1.499999999999999944e-01 -1.499999999999999944e-01 -1.499999999999999944e-01 -1.499999999999999944e-01 -1.499999999999999944e-01 4.225097495550321769e-01 1.393900401885193485e+00 1.786602582862950150e+00 1.916166568461449726e+00 1.968244016114909734e+00 1.979028484922423559e+00 1.800296866629222281e+00 1.766955821899612422e+00 1.558138819544991893e+00 1.365946170108606417e+00 -1.499999999999999944e-01 -1.499999999999999944e-01 -1.499999999999999944e-01 -1.499999999999999944e-01 -1.499999999999999944e-01 -1.499999999999999944e-01 -1.499999999999999944e-01 -1.499999999999999944e-01 -1.499999999999999944e-01 -1.499999999999999944e-01 -1.499999999999999944e-01 -1.499999999999999944e-01 -1.499999999999999944e-01 -1.499999999999999944e-01 -1.034277865015706399e-02 -1.097511248113709759e-01 -2.188442464707007762e-03 1.179895429543882157e+00 1.337356729292669133e+00 1.673076340968194797e+00 1.861358568114539702e+00 1.949501726207750529e+00 1.936455337803984378e+00 1.951854635069137922e+00 1.886448400388820001e+00 1.889580660381564137e+00 1.847101987646809773e+00 1.502846940444517720e+00 2.458684483388198783e-01 -1.499999999999999944e-01 -1.499999999999999944e-01 -1.499999999999999944e-01 -1.499999999999999944e-01 -1.499999999999999944e-01 -1.499999999999999944e-01 -1.499999999999999944e-01 -1.499999999999999944e-01 -1.499999999999999944e-01 -1.499999999999999944e-01 -1.499999999999999944e-01 -1.499999999999999944e-01 -1.499999999999999944e-01 -1.499999999999999944e-01 1.690795082387834269e-01 9.138909521123961266e-01 7.144431902131198608e-01 7.926158408046231063e-01 1.252747410030875974e+00 1.824410913259361555e+00 1.935247656889440115e+00 1.905375211927577306e+00 1.917303359787601247e+00 1.853362252600244009e+00 1.922983322034099940e+00 1.853760741457726180e+00 1.415126466069014377e+00 1.207583230608787472e+00 6.979328616688937892e-01 1.845143731695834122e-01 -1.499999999999999944e-01 -1.499999999999999944e-01 -1.499999999999999944e-01 -1.499999999999999944e-01 -1.499999999999999944e-01 -1.499999999999999944e-01 -1.499999999999999944e-01 -1.499999999999999944e-01 -1.499999999999999944e-01 -1.499999999999999944e-01 -1.499999999999999944e-01 -1.499999999999999944e-01 -1.320391583131613755e-01 -1.231508371520569356e-01 4.424471727190106007e-02 5.010170093966317406e-01 1.172200754099821607e+00 1.369949916349115782e+00 1.098466182356976351e+00 1.471739630418331668e+00 1.004753374467543425e+00 1.770975213120921321e+00 1.851811920687252977e+00 1.792841570432297749e+00 1.529421106637110617e+00 1.050836772822506759e+00 3.850206860828363498e-01 1.235604798985733832e-01 -1.499999999999999944e-01 -1.499999999999999944e-01 -1.499999999999999944e-01 -1.499999999999999944e-01 -1.499999999999999944e-01 -1.499999999999999944e-01 -1.499999999999999944e-01 -1.499999999999999944e-01 -1.499999999999999944e-01 -1.499999999999999944e-01 -1.499999999999999944e-01 -8.155885247219203660e-02 -9.479349039681581046e-02 2.667595793530615489e-01 2.423091409039658251e-01 2.168809538053989572e-01 3.302274895818301803e-01 -1.499999999999999944e-01 2.707649621980168786e-01 6.594668728490158394e-01 1.290300366568369661e+00 1.710708681949764109e+00 1.895934777538986316e+00 1.653091567534712425e+00 1.189777974641815561e+00 1.153379921880943293e+00 -1.418153614096573922e-01 -1.775461118718418829e-02 -1.499999999999999944e-01 -1.499999999999999944e-01 -1.499999999999999944e-01 -1.499999999999999944e-01 -1.499999999999999944e-01 -1.499999999999999944e-01 -1.499999999999999944e-01 -1.499999999999999944e-01 -1.499999999999999944e-01 -1.499999999999999944e-01 -1.499999999999999944e-01 -1.499999999999999944e-01 -1.499999999999999944e-01 -1.499999999999999944e-01 2.536286418328750902e-01 -1.392555443595550058e-01 9.562000029959366598e-02 9.521005089106535646e-01 7.254102425298838419e-01 1.480010276936133407e+00 1.759081772877493899e+00 1.948362519331325871e+00 1.816317541625053877e+00 1.626541719298528088e+00 1.176109631901121277e+00 1.280282727068244197e+00 5.795097326692861817e-01 -1.259457271580140536e-01 -1.499999999999999944e-01 -1.499999999999999944e-01 -1.499999999999999944e-01 -1.499999999999999944e-01 -1.499999999999999944e-01 -1.499999999999999944e-01 -1.499999999999999944e-01 -1.499999999999999944e-01 -1.499999999999999944e-01 -1.499999999999999944e-01 -1.499999999999999944e-01 -1.499999999999999944e-01 -1.499999999999999944e-01 -1.499999999999999944e-01 -1.499999999999999944e-01 3.623193044044731304e-01 9.243208277722488875e-01 1.694455019177667499e+00 1.787729292213303900e+00 1.852060326642073207e+00 1.925282076514726493e+00 1.866833484048562308e+00 1.860760195166897946e+00 1.759446774068995190e+00 1.351626009843735154e+00 8.600268983696681691e-01 5.442984802311678916e-01 -1.499999999999999944e-01 -1.499999999999999944e-01 -1.499999999999999944e-01 -1.499999999999999944e-01 -1.499999999999999944e-01 -1.499999999999999944e-01 -1.499999999999999944e-01 -1.499999999999999944e-01 -1.499999999999999944e-01 -1.499999999999999944e-01 -1.499999999999999944e-01 -1.499999999999999944e-01 -1.499999999999999944e-01 -1.499999999999999944e-01 -1.499999999999999944e-01 -1.499999999999999944e-01 1.234003935223511261e+00 1.415776554503679119e+00 1.690761878551375608e+00 1.829919606683438449e+00 1.926799221241698890e+00 1.886257893181937595e+00 1.886414251597567926e+00 1.734823667526862678e+00 1.636941523761715311e+00 1.533446243985567170e+00 1.486140669250553215e+00 5.816613363618572397e-01 -1.499999999999999944e-01 -1.499999999999999944e-01 -1.499999999999999944e-01 -1.499999999999999944e-01 -1.499999999999999944e-01 -1.499999999999999944e-01 -1.499999999999999944e-01 -1.499999999999999944e-01 -1.499999999999999944e-01 -1.499999999999999944e-01 -1.499999999999999944e-01 -1.499999999999999944e-01 -1.499999999999999944e-01 -1.499999999999999944e-01 -1.499999999999999944e-01 7.794793515350904034e-01 1.356977470103574390e+00 1.761474309081976664e+00 1.699798832048799779e+00 1.837881452859608356e+00 1.911774804399797523e+00 1.918429042295730858e+00 1.911493660684173701e+00 1.574342475745127645e+00 1.716385665408923344e+00 1.630984759918251870e+00 1.536982970092446665e+00 2.573271153229064745e-01 -1.499999999999999944e-01 -1.499999999999999944e-01 -1.499999999999999944e-01 -1.499999999999999944e-01 -1.499999999999999944e-01 -1.499999999999999944e-01 -1.499999999999999944e-01 -1.499999999999999944e-01 -1.499999999999999944e-01 -1.499999999999999944e-01 -1.499999999999999944e-01 -1.499999999999999944e-01 -1.499999999999999944e-01 -1.499999999999999944e-01 -1.499999999999999944e-01 8.406618001796690720e-01 1.114437855972876923e+00 1.598651168873880035e+00 1.789035299613100927e+00 1.882598203771305156e+00 1.955887569170556839e+00 1.898088806890923186e+00 1.730743260694462604e+00 1.664233595617967687e+00 1.609965116701313592e+00 1.672070373620695438e+00 1.567701616698860656e+00 8.898771672739707039e-01 -1.499999999999999944e-01 -1.499999999999999944e-01 -1.499999999999999944e-01 -1.499999999999999944e-01 -1.499999999999999944e-01 -1.499999999999999944e-01 -1.499999999999999944e-01 -1.499999999999999944e-01 -1.499999999999999944e-01 -1.499999999999999944e-01 -1.499999999999999944e-01 -1.499999999999999944e-01 -1.499999999999999944e-01 -1.499999999999999944e-01 -1.499999999999999944e-01 1.272664087086169959e-02 1.391882162948216761e+00 1.647830062732591028e+00 1.728889017891213742e+00 1.333432484299781562e+00 1.624339941377576979e+00 1.526162674897946880e+00 1.616973195768095284e+00 1.684783270262269816e+00 1.784178438616792040e+00 1.796271418869485492e+00 1.666902955494060867e+00 9.635484077324556473e-01 -1.499999999999999944e-01 -1.499999999999999944e-01 -1.499999999999999944e-01 -1.499999999999999944e-01 -1.499999999999999944e-01 -1.499999999999999944e-01 -1.499999999999999944e-01 -1.499999999999999944e-01 -1.499999999999999944e-01 -1.499999999999999944e-01 -1.499999999999999944e-01 -1.499999999999999944e-01 -1.499999999999999944e-01 -1.499999999999999944e-01 -1.499999999999999944e-01 1.251120376365049969e-01 6.239417984139894457e-01 9.488409000317529762e-02 1.344062222697776088e+00 1.282342957708151321e-01 2.296093869047614866e-01 4.801116898954588957e-03 1.075436409210496214e+00 1.581116167356366065e+00 1.786187989977517487e+00 1.845647928592067943e+00 1.866387380727974277e+00 1.218240345754517229e+00 -1.499999999999999944e-01 -1.499999999999999944e-01 -1.499999999999999944e-01 -1.499999999999999944e-01 -1.499999999999999944e-01 -1.499999999999999944e-01 -1.499999999999999944e-01 -1.499999999999999944e-01 -1.499999999999999944e-01 -1.499999999999999944e-01 -1.499999999999999944e-01 -1.499999999999999944e-01 -1.499999999999999944e-01 -1.499999999999999944e-01 -1.499999999999999944e-01 7.699403670763020902e-01 9.417585155296088750e-01 -1.499999999999999944e-01 1.053506320174407151e-01 -1.499999999999999944e-01 -1.499999999999999944e-01 7.055582513354966001e-02 1.853113133459604600e-01 1.412770686669296838e+00 1.786618195840196544e+00 1.939731246435534961e+00 1.808373294485927429e+00 1.188796448285455831e+00 1.364418348108350221e-01 -1.499999999999999944e-01 -1.499999999999999944e-01 -1.499999999999999944e-01 -1.499999999999999944e-01 -1.499999999999999944e-01 -1.499999999999999944e-01 -1.499999999999999944e-01 -1.499999999999999944e-01 -1.499999999999999944e-01 -1.499999999999999944e-01 -1.499999999999999944e-01 -1.499999999999999944e-01 7.049649286793908676e-01 5.863765144898323012e-01 8.997428123193333960e-01 1.131941864983414536e+00 -1.499999999999999944e-01 -1.147217498060520841e-01 -1.499999999999999944e-01 -4.042000700853021211e-02 5.847655147423966859e-01 1.454656583683435533e+00 1.645494019018864051e+00 1.768538968175807469e+00 1.821870119032543922e+00 1.715690087584614609e+00 1.061722634729719950e+00 -1.499999999999999944e-01 -1.499999999999999944e-01 -1.499999999999999944e-01 -1.499999999999999944e-01 -1.499999999999999944e-01 -1.499999999999999944e-01 -1.499999999999999944e-01 -1.499999999999999944e-01 -1.499999999999999944e-01 -1.499999999999999944e-01 -1.499999999999999944e-01 -1.499999999999999944e-01 4.661994532929397139e-01 9.182138184727426378e-01 6.761431808709128521e-01 1.481663847348833940e+00 1.458202967272378414e+00 1.112375681686481377e+00 -1.450062759411174240e-01 3.326144438396413938e-01 6.753479649900413495e-01 1.412336675021621746e+00 1.823037127562558979e+00 1.841019972521570347e+00 1.855517803876441718e+00 1.870825735883459684e+00 1.795621169599114886e+00 1.394093705385952786e+00 -1.499999999999999944e-01 -1.499999999999999944e-01 -1.499999999999999944e-01 -1.499999999999999944e-01 -1.499999999999999944e-01 -1.499999999999999944e-01 -1.499999999999999944e-01 -1.499999999999999944e-01 -1.499999999999999944e-01 -1.499999999999999944e-01 -1.499999999999999944e-01 -1.499999999999999944e-01 5.437195289080547500e-01 7.630429326628207498e-01 1.176924434152512244e+00 1.515936315936885936e+00 1.601890846466838658e+00 1.253697791579422294e+00 1.302709547454129702e+00 1.611663268067852428e+00 1.812074395839790242e+00 1.888848928876906141e+00 1.962254903403969131e+00 1.943910445998658476e+00 1.858463302674918216e+00 1.797609532426753587e+00 1.500753103489338436e+00 1.356134033410127948e-01 -1.499999999999999944e-01 -1.499999999999999944e-01 -1.499999999999999944e-01 -1.499999999999999944e-01 -1.499999999999999944e-01 -1.499999999999999944e-01 -1.499999999999999944e-01 -1.499999999999999944e-01 -1.499999999999999944e-01 -1.499999999999999944e-01 -1.499999999999999944e-01 -1.499999999999999944e-01 3.484130206916883910e-01 9.400246109061127786e-01 1.273527277496612209e+00 1.602931106430401487e+00 1.868346187093640642e+00 1.902968208083018808e+00 1.861999336462313970e+00 1.870891505224302698e+00 1.884308290421674137e+00 1.913866562832868823e+00 1.892098616671421318e+00 1.892767362680707111e+00 1.690527556196664172e+00 1.509043245002000599e+00 3.407824194186274691e-01 -1.499999999999999944e-01 -1.499999999999999944e-01 -1.499999999999999944e-01 -1.499999999999999944e-01 -1.499999999999999944e-01 -1.499999999999999944e-01 -1.499999999999999944e-01 -1.499999999999999944e-01 -1.499999999999999944e-01 -1.499999999999999944e-01 -1.499999999999999944e-01 -1.499999999999999944e-01 -1.499999999999999944e-01 1.166654284107388473e-01 2.047590018414549573e-01 1.374867249169760441e+00 1.723348019714596280e+00 1.843045069495237387e+00 1.910873372224928479e+00 1.897449528038570365e+00 1.913855319880332306e+00 1.921370062964646852e+00 1.920042756910462778e+00 1.741817803809182053e+00 1.663272089731808068e+00 1.227009795406164505e+00 1.194686152540509916e+00 1.500681646072660747e-01 -1.499999999999999944e-01 -1.499999999999999944e-01 -1.499999999999999944e-01 -1.499999999999999944e-01 -1.499999999999999944e-01 -1.499999999999999944e-01 -1.499999999999999944e-01 -1.499999999999999944e-01 -1.499999999999999944e-01 -1.499999999999999944e-01 -1.499999999999999944e-01 -1.499999999999999944e-01 -1.499999999999999944e-01 -1.299870873291844586e-01 -1.275586796955974767e-01 8.065937344625404570e-01 1.359300431832268563e+00 1.536731593811203389e+00 1.842064074408638730e+00 1.815025130650611995e+00 1.839566123073764548e+00 1.710783927458110254e+00 1.251979757171307828e+00 1.336434125598351841e+00 1.255827173243198036e+00 4.408327771883276402e-01 8.822334116231156376e-02 -1.499999999999999944e-01 -1.499999999999999944e-01 -1.499999999999999944e-01 -1.499999999999999944e-01 -1.499999999999999944e-01 -1.499999999999999944e-01 -1.499999999999999944e-01 -1.499999999999999944e-01 -1.499999999999999944e-01 -1.499999999999999944e-01 -1.499999999999999944e-01 -1.499999999999999944e-01 -1.499999999999999944e-01 -1.499999999999999944e-01 -1.499999999999999944e-01 -1.499999999999999944e-01 -1.499999999999999944e-01 5.453098357496910520e-01 -1.373181003319877136e-01 2.341200810698441104e-01 1.098488494877992938e+00 -1.000753689710623395e-02 8.362071167295512808e-01 9.608334940033249616e-01 1.957862207720759140e-01 8.295126942983936935e-01 8.707702966330754801e-02 -1.499999999999999944e-01 -1.499999999999999944e-01 -1.499999999999999944e-01 -1.499999999999999944e-01 -1.499999999999999944e-01 -1.499999999999999944e-01 -1.499999999999999944e-01 -1.499999999999999944e-01 -1.499999999999999944e-01 -1.499999999999999944e-01 -1.499999999999999944e-01 -1.499999999999999944e-01 -1.499999999999999944e-01 -1.499999999999999944e-01 -1.499999999999999944e-01 -1.499999999999999944e-01 -1.499999999999999944e-01 -1.499999999999999944e-01 -1.499999999999999944e-01 -1.499999999999999944e-01 -1.499999999999999944e-01 -1.499999999999999944e-01 3.641609014579686998e-01 -1.499999999999999944e-01 -1.499999999999999944e-01 -1.379593454931030416e-01 5.494488503697503301e-02 -1.499999999999999944e-01 -1.499999999999999944e-01 -1.499999999999999944e-01 -1.499999999999999944e-01 -1.499999999999999944e-01 -1.499999999999999944e-01 -1.499999999999999944e-01 -1.499999999999999944e-01 -1.499999999999999944e-01 -1.499999999999999944e-01 -1.499999999999999944e-01 -1.499999999999999944e-01 -1.499999999999999944e-01 -1.499999999999999944e-01 -1.499999999999999944e-01 -1.499999999999999944e-01 -1.499999999999999944e-01 -1.499999999999999944e-01 -1.499999999999999944e-01 -1.499999999999999944e-01 -1.499999999999999944e-01 -1.499999999999999944e-01 -1.499999999999999944e-01 -1.499999999999999944e-01 -1.499999999999999944e-01 -1.499999999999999944e-01 -1.499999999999999944e-01 -1.499999999999999944e-01 -1.499999999999999944e-01 -1.499999999999999944e-01 -1.499999999999999944e-01 -1.499999999999999944e-01 -1.499999999999999944e-01 -1.499999999999999944e-01 -1.499999999999999944e-01 -1.499999999999999944e-01 -1.499999999999999944e-01 -1.499999999999999944e-01 -1.499999999999999944e-01 -1.499999999999999944e-01 -1.499999999999999944e-01 -1.499999999999999944e-01 -1.499999999999999944e-01 -1.499999999999999944e-01 -1.499999999999999944e-01 -1.499999999999999944e-01 -1.499999999999999944e-01 -1.499999999999999944e-01 -1.499999999999999944e-01 -1.499999999999999944e-01 -1.499999999999999944e-01 -1.499999999999999944e-01 -1.499999999999999944e-01 -1.499999999999999944e-01 -1.499999999999999944e-01 -1.499999999999999944e-01 -1.499999999999999944e-01 -1.499999999999999944e-01 -1.499999999999999944e-01 -1.499999999999999944e-01 -1.499999999999999944e-01 -1.499999999999999944e-01 -1.499999999999999944e-01 -1.499999999999999944e-01 -1.499999999999999944e-01 -1.499999999999999944e-01 -1.499999999999999944e-01
