-2.000000000000000042e-02 -2.000000000000000042e-02 -2.000000000000000042e-02 -2.000000000000000042e-02 -2.000000000000000042e-02 -2.000000000000000042e-02 -2.000000000000000042e-02 -2.000000000000000042e-02 -2.000000000000000042e-02 -2.000000000000000042e-02 -2.000000000000000042e-02 -2.000000000000000042e-02 -2.000000000000000042e-02 -2.000000000000000042e-02 -2.000000000000000042e-02 -2.000000000000000042e-02 -2.000000000000000042e-02 -2.000000000000000042e-02 -2.000000000000000042e-02 -2.000000000000000042e-02 -2.000000000000000042e-02 -2.000000000000000042e-02 -2.000000000000000042e-02 -2.000000000000000042e-02 -2.000000000000000042e-02 -2.000000000000000042e-02 -2.000000000000000042e-02 -2.000000000000000042e-02 -2.000000000000000042e-02 -2.000000000000000042e-02 -2.000000000000000042e-02 -2.000000000000000042e-02 -2.000000000000000042e-02 -2.000000000000000042e-02 -2.000000000000000042e-02 -2.000000000000000042e-02 -2.000000000000000042e-02 -2.000000000000000042e-02 -2.000000000000000042e-02 -2.000000000000000042e-02 -2.000000000000000042e-02 -2.000000000000000042e-02 -2.000000000000000042e-02 -2.000000000000000042e-02 -2.000000000000000042e-02 -2.000000000000000042e-02 -2.000000000000000042e-02 -2.000000000000000042e-02 -2.000000000000000042e-02 -2.000000000000000042e-02 -2.000000000000000042e-02 -2.000000000000000042e-02 -2.000000000000000042e-02 -2.000000000000000042e-02 -2.000000000000000042e-02 -2.000000000000000042e-02 -2.000000000000000042e-02 -2.000000000000000042e-02 -2.000000000000000042e-02 -2.000000000000000042e-02 -2.000000000000000042e-02 -2.000000000000000042e-02 -2.000000000000000042e-02 -2.000000000000000042e-02 -2.000000000000000042e-02 -2.000000000000000042e-02 -2.000000000000000042e-02 -2.000000000000000042e-02 -2.000000000000000042e-02 -2.000000000000000042e-02 -2.000000000000000042e-02 -2.000000000000000042e-02 -2.000000000000000042e-02 -2.000000000000000042e-02 -2.000000000000000042e-02 -2.000000000000000042e-02 -2.000000000000000042e-02 -2.000000000000000042e-02 -2.000000000000000042e-02 -2.000000000000000042e-02 -2.000000000000000042e-02 -2.000000000000000042e-02 -2.000000000000000042e-02 -2.000000000000000042e-02 -2.000000000000000042e-02 -2.000000000000000042e-02 -2.000000000000000042e-02 -2.000000000000000042e-02 -2.000000000000000042e-02 -2.000000000000000042e-02 -2.000000000000000042e-02 -2.000000000000000042e-02 -2.000000000000000042e-02 -2.000000000000000042e-02 -2.000000000000000042e-02 -2.000000000000000042e-02 -2.000000000000000042e-02 -2.000000000000000042e-02 -2.000000000000000042e-02 -2.000000000000000042e-02 -2.000000000000000042e-02 -2.000000000000000042e-02 -2.000000000000000042e-02 -2.000000000000000042e-02 -2.000000000000000042e-02 -2.000000000000000042e-02 -2.000000000000000042e-02 -2.000000000000000042e-02 -2.000000000000000042e-02 -2.000000000000000042e-02 -2.000000000000000042e-02 -2.000000000000000042e-02 -2.000000000000000042e-02 -2.000000000000000042e-02 -2.000000000000000042e-02 -2.000000000000000042e-02 -2.000000000000000042e-02 -2.000000000000000042e-02 -2.000000000000000042e-02 -2.000000000000000042e-02 -2.000000000000000042e-02 -2.000000000000000042e-02 -2.000000000000000042e-02 -2.000000000000000042e-02 -2.000000000000000042e-02 1.342450810194447952e-01 1.514588157617607067e-01 1.433130677941159836e-01 4.845419761606818004e-02 2.312267961194559573e-01 2.520168741482340866e-02 -2.000000000000000042e-02 -2.000000000000000042e-02 -2.000000000000000042e-02 -2.000000000000000042e-02 -2.000000000000000042e-02 -2.000000000000000042e-02 -2.000000000000000042e-02 -2.000000000000000042e-02 -2.000000000000000042e-02 -2.000000000000000042e-02 -2.000000000000000042e-02 -2.000000000000000042e-02 -2.000000000000000042e-02 -2.000000000000000042e-02 -2.000000000000000042e-02 -2.000000000000000042e-02 -2.000000000000000042e-02 -2.000000000000000042e-02 5.649978172078796990e-02 7.622713360754568290e-03 3.952383273310047795e-02 7.568178114842681881e-01 8.674022361374694734e-01 9.412068290354399513e-01 9.324424599141925007e-01 7.386704598272120226e-01 6.845997218793186123e-01 4.975836244316472756e-01 2.278458190414872908e-01 -2.000000000000000042e-02 -2.000000000000000042e-02 -2.000000000000000042e-02 -2.000000000000000042e-02 -2.000000000000000042e-02 -2.000000000000000042e-02 -2.000000000000000042e-02 -2.000000000000000042e-02 -2.000000000000000042e-02 -2.000000000000000042e-02 -2.000000000000000042e-02 -2.000000000000000042e-02 -2.000000000000000042e-02 -2.000000000000000042e-02 -2.000000000000000042e-02 -2.000000000000000042e-02 -2.000000000000000042e-02 7.703427343447100117e-02 4.121593265622982560e-01 7.159327883522244029e-01 7.294646054669470248e-01 9.010001538447948155e-01 9.000372767627502490e-01 7.794259707606574494e-01 7.173969080553036504e-01 6.211998127955860038e-01 6.633962428731892125e-01 4.150807385398332938e-01 1.259198095418295471e-01 -2.000000000000000042e-02 -2.000000000000000042e-02 -2.000000000000000042e-02 -2.000000000000000042e-02 -2.000000000000000042e-02 -2.000000000000000042e-02 -2.000000000000000042e-02 -2.000000000000000042e-02 -2.000000000000000042e-02 -2.000000000000000042e-02 -2.000000000000000042e-02 -2.000000000000000042e-02 -2.000000000000000042e-02 -2.000000000000000042e-02 -2.000000000000000042e-02 8.923290673537734308e-02 4.708988935721730718e-02 4.848832882229849317e-01 5.207531741226273381e-01 4.105411275809242033e-01 6.565188153794845327e-01 6.182984729821948688e-01 1.747655830142753608e-01 1.504079026088034066e-01 4.681139614266370264e-01 6.923600836595986685e-01 4.628680284353274832e-01 2.893560465482686306e-01 -2.000000000000000042e-02 -2.000000000000000042e-02 -2.000000000000000042e-02 -2.000000000000000042e-02 -2.000000000000000042e-02 -2.000000000000000042e-02 -2.000000000000000042e-02 -2.000000000000000042e-02 -2.000000000000000042e-02 -2.000000000000000042e-02 -2.000000000000000042e-02 -2.000000000000000042e-02 -2.000000000000000042e-02 -2.000000000000000042e-02 -2.000000000000000042e-02 -2.000000000000000042e-02 4.396083953938562106e-01 5.390933341300039316e-01 5.768790902760173589e-01 4.073699323743642520e-01 3.282941445395080593e-01 2.203498473762979248e-01 2.758109518609033750e-02 -2.000000000000000042e-02 1.613775549029314860e-01 5.578314293403918711e-01 6.986142730598591255e-01 3.137230414710088788e-01 3.107534826135480155e-02 -2.000000000000000042e-02 -2.000000000000000042e-02 -2.000000000000000042e-02 -2.000000000000000042e-02 -2.000000000000000042e-02 -2.000000000000000042e-02 -2.000000000000000042e-02 -2.000000000000000042e-02 -2.000000000000000042e-02 -2.000000000000000042e-02 -2.000000000000000042e-02 -2.000000000000000042e-02 -2.000000000000000042e-02 -2.000000000000000042e-02 1.534542248117215513e-01 3.440939640239781827e-01 5.941770182290216917e-01 5.756274947632041838e-01 3.131780970869620928e-01 -1.064532019416092323e-02 -2.000000000000000042e-02 -2.000000000000000042e-02 -2.000000000000000042e-02 -3.929506821604061839e-03 4.931984454218915626e-01 7.248412588142857382e-01 5.127685731064151042e-01 1.221990828449043276e-02 -2.000000000000000042e-02 -2.000000000000000042e-02 -2.000000000000000042e-02 -2.000000000000000042e-02 -2.000000000000000042e-02 -2.000000000000000042e-02 -2.000000000000000042e-02 -2.000000000000000042e-02 -2.000000000000000042e-02 -2.000000000000000042e-02 -2.000000000000000042e-02 -2.000000000000000042e-02 -2.000000000000000042e-02 8.487822268170169826e-02 2.497285350184061392e-01 4.695420713706985882e-01 5.153722509589171441e-01 2.939446281462581578e-01 -2.000000000000000042e-02 -2.000000000000000042e-02 -2.000000000000000042e-02 -2.000000000000000042e-02 -2.000000000000000042e-02 -2.000000000000000042e-02 3.196960480781440572e-01 6.632748078814125758e-01 5.940039127198726288e-01 1.153832130250917187e-01 -2.000000000000000042e-02 -2.000000000000000042e-02 -2.000000000000000042e-02 -2.000000000000000042e-02 -2.000000000000000042e-02 -2.000000000000000042e-02 -2.000000000000000042e-02 -2.000000000000000042e-02 -2.000000000000000042e-02 -2.000000000000000042e-02 -2.000000000000000042e-02 -2.000000000000000042e-02 -2.000000000000000042e-02 1.722033331312022020e-01 4.508874542846850186e-01 3.434721473163961369e-01 4.266925418674011317e-01 3.271080289423354548e-02 -2.000000000000000042e-02 -2.000000000000000042e-02 -2.000000000000000042e-02 -2.000000000000000042e-02 -2.000000000000000042e-02 -2.000000000000000042e-02 2.867252598438356226e-01 6.416204096208307783e-01 5.150439789811354085e-01 1.305559455386334500e-01 -2.000000000000000042e-02 -2.000000000000000042e-02 -2.000000000000000042e-02 -2.000000000000000042e-02 -2.000000000000000042e-02 -2.000000000000000042e-02 -2.000000000000000042e-02 -2.000000000000000042e-02 -2.000000000000000042e-02 -2.000000000000000042e-02 -2.000000000000000042e-02 -2.000000000000000042e-02 -2.000000000000000042e-02 1.932764962537777964e-01 4.132418751978798599e-01 4.631649221136002748e-01 4.916791002549679157e-01 -2.000000000000000042e-02 -2.000000000000000042e-02 -2.000000000000000042e-02 -2.000000000000000042e-02 -2.000000000000000042e-02 -2.000000000000000042e-02 -2.000000000000000042e-02 1.377913981895535767e-01 5.377803354309644845e-01 6.802363492066948458e-01 2.864884379934099501e-01 -2.000000000000000042e-02 -2.000000000000000042e-02 -2.000000000000000042e-02 -2.000000000000000042e-02 -2.000000000000000042e-02 -2.000000000000000042e-02 -2.000000000000000042e-02 -2.000000000000000042e-02 -2.000000000000000042e-02 -2.000000000000000042e-02 -2.000000000000000042e-02 -2.000000000000000042e-02 -2.000000000000000042e-02 4.185032816191868177e-01 4.112160590587315423e-01 4.857617622655862055e-01 2.639346946985752784e-01 2.402017209303294876e-02 -2.000000000000000042e-02 -2.000000000000000042e-02 -2.000000000000000042e-02 -2.000000000000000042e-02 -2.000000000000000042e-02 -2.000000000000000042e-02 1.664207422148503424e-01 5.140421348495174403e-01 6.429223084144256584e-01 2.102446258696584747e-01 -2.000000000000000042e-02 -2.000000000000000042e-02 -2.000000000000000042e-02 -2.000000000000000042e-02 -2.000000000000000042e-02 -2.000000000000000042e-02 -2.000000000000000042e-02 -2.000000000000000042e-02 -2.000000000000000042e-02 -2.000000000000000042e-02 -2.000000000000000042e-02 -2.000000000000000042e-02 -2.000000000000000042e-02 4.636964238873577671e-01 5.327390376281383455e-01 4.760515590782976592e-01 4.572500727053788183e-02 5.880015611400982167e-02 -2.000000000000000042e-02 -2.000000000000000042e-02 -2.000000000000000042e-02 -2.000000000000000042e-02 -2.000000000000000042e-02 -2.000000000000000042e-02 2.709756589083672090e-02 5.479617567391880106e-01 6.699115825389774237e-01 1.933261269573349761e-02 -2.000000000000000042e-02 -2.000000000000000042e-02 -2.000000000000000042e-02 -2.000000000000000042e-02 -2.000000000000000042e-02 -2.000000000000000042e-02 -2.000000000000000042e-02 -2.000000000000000042e-02 -2.000000000000000042e-02 -2.000000000000000042e-02 -2.000000000000000042e-02 -2.000000000000000042e-02 -2.000000000000000042e-02 4.378682942509450338e-01 4.871908808452204420e-01 3.425592592480385390e-01 9.759115351999519961e-02 -9.088190624007536078e-03 -3.822398748454663986e-04 -2.000000000000000042e-02 -2.000000000000000042e-02 -2.000000000000000042e-02 -2.000000000000000042e-02 -2.000000000000000042e-02 1.255991753162928048e-01 2.201311636915760372e-01 4.587712036767363499e-01 4.062397230488323796e-01 -2.000000000000000042e-02 -2.000000000000000042e-02 -2.000000000000000042e-02 -2.000000000000000042e-02 -2.000000000000000042e-02 -2.000000000000000042e-02 -2.000000000000000042e-02 -2.000000000000000042e-02 -2.000000000000000042e-02 -2.000000000000000042e-02 -2.000000000000000042e-02 -2.000000000000000042e-02 -2.000000000000000042e-02 3.762045600709882920e-01 6.103409019305676697e-01 2.772639328641375300e-01 3.602746143550186741e-02 3.872700309465473834e-02 -2.000000000000000042e-02 -2.000000000000000042e-02 -2.000000000000000042e-02 -2.000000000000000042e-02 -2.000000000000000042e-02 -2.000000000000000042e-02 1.105261129299787981e-01 4.505339568634811331e-01 5.466073519309594397e-01 2.794039208194536994e-01 -2.000000000000000042e-02 -2.000000000000000042e-02 -2.000000000000000042e-02 -2.000000000000000042e-02 -2.000000000000000042e-02 -2.000000000000000042e-02 -2.000000000000000042e-02 -2.000000000000000042e-02 -2.000000000000000042e-02 -2.000000000000000042e-02 -2.000000000000000042e-02 -2.000000000000000042e-02 -2.000000000000000042e-02 4.811078105418002959e-01 6.702148510660840275e-01 3.504055695498213274e-01 9.867181817272002720e-02 -2.000000000000000042e-02 -2.000000000000000042e-02 -2.000000000000000042e-02 -2.000000000000000042e-02 -2.000000000000000042e-02 -2.000000000000000042e-02 9.262604459661569201e-02 2.422368917347139106e-01 4.309682725393476077e-01 4.478664212198002481e-01 2.463127650333382102e-01 -2.000000000000000042e-02 -2.000000000000000042e-02 -2.000000000000000042e-02 -2.000000000000000042e-02 -2.000000000000000042e-02 -2.000000000000000042e-02 -2.000000000000000042e-02 -2.000000000000000042e-02 -2.000000000000000042e-02 -2.000000000000000042e-02 -2.000000000000000042e-02 -2.000000000000000042e-02 -2.000000000000000042e-02 3.077606955129245092e-01 6.981767218502722416e-01 7.116134076814183418e-01 2.542859875061684316e-01 1.074570492923213882e-01 -2.000000000000000042e-02 -2.000000000000000042e-02 -2.000000000000000042e-02 -2.000000000000000042e-02 6.078983602869608704e-02 8.222290521639058491e-02 3.895321708504232427e-01 4.585178838903446463e-01 3.420348172511941121e-01 2.280232000217712884e-01 -2.000000000000000042e-02 -2.000000000000000042e-02 -2.000000000000000042e-02 -2.000000000000000042e-02 -2.000000000000000042e-02 -2.000000000000000042e-02 -2.000000000000000042e-02 -2.000000000000000042e-02 -2.000000000000000042e-02 -2.000000000000000042e-02 -2.000000000000000042e-02 -2.000000000000000042e-02 -2.000000000000000042e-02 3.796999443479731617e-01 6.590447467286844052e-01 8.009646943564698862e-01 3.771448669105390006e-01 1.128812191234855322e-01 8.519116878879406940e-02 -2.000000000000000042e-02 -2.000000000000000042e-02 -2.000000000000000042e-02 4.005902471295456208e-02 3.434548491024633221e-01 5.422420663967176813e-01 4.898409802043103278e-01 4.619228013615904183e-01 1.956272865221719837e-01 -2.000000000000000042e-02 -2.000000000000000042e-02 1.221990828449043276e-02 -2.000000000000000042e-02 -2.000000000000000042e-02 -2.000000000000000042e-02 -2.000000000000000042e-02 -2.000000000000000042e-02 -2.000000000000000042e-02 -2.000000000000000042e-02 -2.000000000000000042e-02 -2.000000000000000042e-02 -2.000000000000000042e-02 2.243107142955421129e-01 5.491451451575218856e-01 7.513662639401698096e-01 6.051364802013392552e-01 1.062637541655898632e-01 -2.000000000000000042e-02 8.933858936721808530e-02 4.864993605107260921e-02 2.000904485137766919e-01 5.629957960114603255e-01 6.517186887906154524e-01 7.632436524005485889e-01 5.607710064616987511e-01 3.029408733597101500e-01 1.058335892458399374e-01 -2.000000000000000042e-02 -2.000000000000000042e-02 -2.000000000000000042e-02 -2.000000000000000042e-02 -2.000000000000000042e-02 -2.000000000000000042e-02 -2.000000000000000042e-02 -2.000000000000000042e-02 -2.000000000000000042e-02 -2.000000000000000042e-02 -2.000000000000000042e-02 -2.000000000000000042e-02 -2.000000000000000042e-02 5.430676388046641601e-02 5.968729449477867544e-01 8.812087248334825595e-01 8.156101408803311248e-01 8.274573248891332611e-01 5.795585142935160139e-01 5.415491313995470790e-01 7.256827366039536598e-01 8.527215649756503257e-01 8.160410311845209819e-01 8.109699523354337858e-01 7.262346381246772564e-01 4.287416285437628538e-01 1.678073696517873303e-01 8.986355641262364080e-03 -2.000000000000000042e-02 -2.000000000000000042e-02 -2.000000000000000042e-02 -2.000000000000000042e-02 -2.000000000000000042e-02 -2.000000000000000042e-02 -2.000000000000000042e-02 -2.000000000000000042e-02 -2.000000000000000042e-02 -2.000000000000000042e-02 -2.000000000000000042e-02 -2.000000000000000042e-02 -2.000000000000000042e-02 -2.000000000000000042e-02 2.677753495528086281e-01 8.470237814326986303e-01 9.109149755862631093e-01 9.589563758534241922e-01 9.411224095695228664e-01 9.385023045296781996e-01 9.274480491016890982e-01 9.030524116177657268e-01 8.697313870554070903e-01 7.201976109129372139e-01 4.772389191169348899e-01 3.593294817208559921e-01 6.319058232610347270e-02 4.439709392268109678e-02 -2.000000000000000042e-02 -2.000000000000000042e-02 -2.000000000000000042e-02 -2.000000000000000042e-02 -2.000000000000000042e-02 -2.000000000000000042e-02 -2.000000000000000042e-02 -2.000000000000000042e-02 -2.000000000000000042e-02 -2.000000000000000042e-02 -2.000000000000000042e-02 -2.000000000000000042e-02 -2.000000000000000042e-02 -2.000000000000000042e-02 -2.000000000000000042e-02 2.028688836605612167e-01 6.550209067200661872e-01 6.354423653907278480e-01 7.307502011820932175e-01 8.314666320247702247e-01 7.358725111218223924e-01 6.552474811264976662e-01 4.318765564276338953e-01 3.012437851365094565e-01 4.249204285534824432e-03 -2.000000000000000042e-02 -2.000000000000000042e-02 -5.418310895459424459e-03 -2.000000000000000042e-02 -2.000000000000000042e-02 -2.000000000000000042e-02 -2.000000000000000042e-02 -2.000000000000000042e-02 -2.000000000000000042e-02 -2.000000000000000042e-02 -2.000000000000000042e-02 -2.000000000000000042e-02 -2.000000000000000042e-02 -2.000000000000000042e-02 -2.000000000000000042e-02 -2.000000000000000042e-02 -2.000000000000000042e-02 -2.000000000000000042e-02 -2.000000000000000042e-02 -2.000000000000000042e-02 -2.000000000000000042e-02 -2.000000000000000042e-02 -2.000000000000000042e-02 -2.000000000000000042e-02 -2.000000000000000042e-02 -2.000000000000000042e-02 -2.000000000000000042e-02 -2.000000000000000042e-02 -2.000000000000000042e-02 -2.000000000000000042e-02 -2.000000000000000042e-02 -2.000000000000000042e-02 -2.000000000000000042e-02 -2.000000000000000042e-02 -2.000000000000000042e-02 -2.000000000000000042e-02 -2.000000000000000042e-02 -2.000000000000000042e-02 -2.000000000000000042e-02 -2.000000000000000042e-02 -2.000000000000000042e-02 -2.000000000000000042e-02 -2.000000000000000042e-02 -2.000000000000000042e-02 -2.000000000000000042e-02 -2.000000000000000042e-02 -2.000000000000000042e-02 -2.000000000000000042e-02 -2.000000000000000042e-02 -2.000000000000000042e-02 -2.000000000000000042e-02 -2.000000000000000042e-02 -2.000000000000000042e-02 -2.000000000000000042e-02 -2.000000000000000042e-02 -2.000000000000000042e-02 -2.000000000000000042e-02 -2.000000000000000042e-02 -2.000000000000000042e-02 -2.000000000000000042e-02 -2.000000000000000042e-02 -2.000000000000000042e-02 -2.000000000000000042e-02 -2.000000000000000042e-02 -2.000000000000000042e-02 -2.000000000000000042e-02 -2.000000000000000042e-02 -2.000000000000000042e-02 -2.000000000000000042e-02 -2.000000000000000042e-02 -2.000000000000000042e-02 -2.000000000000000042e-02 -2.000000000000000042e-02 -2.000000000000000042e-02 -2.000000000000000042e-02 -2.000000000000000042e-02 -2.000000000000000042e-02 -2.000000000000000042e-02 -2.000000000000000042e-02 -2.000000000000000042e-02 -2.000000000000000042e-02 -2.000000000000000042e-02 -2.000000000000000042e-02 -2.000000000000000042e-02 -2.000000000000000042e-02 -2.000000000000000042e-02 -2.000000000000000042e-02 -2.000000000000000042e-02 -2.000000000000000042e-02 -2.000000000000000042e-02 -2.000000000000000042e-02 -2.000000000000000042e-02 -2.000000000000000042e-02 -2.000000000000000042e-02 -2.000000000000000042e-02 -2.000000000000000042e-02 -2.000000000000000042e-02 -2.000000000000000042e-02 -2.000000000000000042e-02 -2.000000000000000042e-02 -2.000000000000000042e-02 -2.000000000000000042e-02 -2.000000000000000042e-02 -2.000000000000000042e-02 -2.000000000000000042e-02 -2.000000000000000042e-02 -2.000000000000000042e-02 -2.000000000000000042e-02 -2.000000000000000042e-02 -2.000000000000000042e-02 -2.000000000000000042e-02 -2.000000000000000042e-02 -2.000000000000000042e-02 -2.000000000000000042e-02 -2.000000000000000042e-02 -2.000000000000000042e-02 -2.000000000000000042e-02 -2.000000000000000042e-02 -2.000000000000000042e-02 -2.000000000000000042e-02 -2.000000000000000042e-02
-2.000000000000000042e-02 -2.000000000000000042e-02 -2.000000000000000042e-02 -2.000000000000000042e-02 -2.000000000000000042e-02 -2.000000000000000042e-02 -2.000000000000000042e-02 -2.000000000000000042e-02 -2.000000000000000042e-02 -2.000000000000000042e-02 -2.000000000000000042e-02 -2.000000000000000042e-02 -2.000000000000000042e-02 -2.000000000000000042e-02 -2.000000000000000042e-02 -2.000000000000000042e-02 -2.000000000000000042e-02 -2.000000000000000042e-02 -2.000000000000000042e-02 -2.000000000000000042e-02 -2.000000000000000042e-02 -2.000000000000000042e-02 -2.000000000000000042e-02 -2.000000000000000042e-02 -2.000000000000000042e-02 -2.000000000000000042e-02 -2.000000000000000042e-02 -2.000000000000000042e-02 -2.000000000000000042e-02 -2.000000000000000042e-02 -2.000000000000000042e-02 -2.000000000000000042e-02 -2.000000000000000042e-02 -2.000000000000000042e-02 -2.000000000000000042e-02 -2.000000000000000042e-02 -2.000000000000000042e-02 -2.000000000000000042e-02 -2.000000000000000042e-02 -2.000000000000000042e-02 -2.000000000000000042e-02 -2.000000000000000042e-02 -2.000000000000000042e-02 -2.000000000000000042e-02 -2.000000000000000042e-02 -2.000000000000000042e-02 -2.000000000000000042e-02 -2.000000000000000042e-02 -2.000000000000000042e-02 -2.000000000000000042e-02 -2.000000000000000042e-02 -2.000000000000000042e-02 -2.000000000000000042e-02 -2.000000000000000042e-02 -2.000000000000000042e-02 -2.000000000000000042e-02 -2.000000000000000042e-02 -2.000000000000000042e-02 -2.000000000000000042e-02 -2.000000000000000042e-02 -2.000000000000000042e-02 -2.000000000000000042e-02 -2.000000000000000042e-02 -2.000000000000000042e-02 -2.000000000000000042e-02 -2.000000000000000042e-02 -2.000000000000000042e-02 -2.000000000000000042e-02 -2.000000000000000042e-02 -2.000000000000000042e-02 -2.000000000000000042e-02 -2.000000000000000042e-02 -2.000000000000000042e-02 -2.000000000000000042e-02 -2.000000000000000042e-02 -2.000000000000000042e-02 -2.000000000000000042e-02 -2.000000000000000042e-02 -2.000000000000000042e-02 -2.000000000000000042e-02 -2.000000000000000042e-02 -2.000000000000000042e-02 -2.000000000000000042e-02 -2.000000000000000042e-02 -2.000000000000000042e-02 -2.000000000000000042e-02 -2.000000000000000042e-02 -2.000000000000000042e-02 -2.000000000000000042e-02 -2.000000000000000042e-02 -2.000000000000000042e-02 -2.000000000000000042e-02 -2.000000000000000042e-02 -2.000000000000000042e-02 -2.000000000000000042e-02 -2.000000000000000042e-02 -2.000000000000000042e-02 -2.000000000000000042e-02 1.423216156077905803e-01 1.911037355999164189e-01 -2.000000000000000042e-02 -2.000000000000000042e-02 -2.000000000000000042e-02 -2.000000000000000042e-02 -2.000000000000000042e-02 -2.000000000000000042e-02 -2.000000000000000042e-02 -2.000000000000000042e-02 -2.000000000000000042e-02 -2.000000000000000042e-02 -2.000000000000000042e-02 -2.000000000000000042e-02 -2.000000000000000042e-02 -2.000000000000000042e-02 -2.000000000000000042e-02 -2.000000000000000042e-02 -2.000000000000000042e-02 -2.000000000000000042e-02 -2.000000000000000042e-02 -2.000000000000000042e-02 -2.000000000000000042e-02 -2.000000000000000042e-02 -2.000000000000000042e-02 -2.000000000000000042e-02 -2.000000000000000042e-02 2.682988203642304170e-01 6.606886283246274916e-01 5.452987289740007792e-01 1.430809235151490055e-01 -2.000000000000000042e-02 -2.000000000000000042e-02 -2.000000000000000042e-02 -2.000000000000000042e-02 -2.000000000000000042e-02 -2.000000000000000042e-02 -2.000000000000000042e-02 -2.000000000000000042e-02 -2.000000000000000042e-02 -2.000000000000000042e-02 -2.000000000000000042e-02 -2.000000000000000042e-02 -2.000000000000000042e-02 -2.000000000000000042e-02 -2.000000000000000042e-02 -2.000000000000000042e-02 -2.000000000000000042e-02 -2.000000000000000042e-02 -2.000000000000000042e-02 -2.000000000000000042e-02 -2.000000000000000042e-02 -2.000000000000000042e-02 1.635079934670335619e-02 2.079936406896393253e-02 6.194466975121676322e-01 8.071749742076788081e-01 8.300446952333671025e-01 2.735171899295874010e-01 -2.000000000000000042e-02 -2.000000000000000042e-02 -2.000000000000000042e-02 -2.000000000000000042e-02 -2.000000000000000042e-02 -2.000000000000000042e-02 -2.000000000000000042e-02 -2.000000000000000042e-02 -2.000000000000000042e-02 -2.000000000000000042e-02 -2.000000000000000042e-02 -2.000000000000000042e-02 -2.000000000000000042e-02 -2.000000000000000042e-02 -2.000000000000000042e-02 -2.000000000000000042e-02 -2.000000000000000042e-02 -2.000000000000000042e-02 -2.000000000000000042e-02 -2.000000000000000042e-02 -2.000000000000000042e-02 -2.000000000000000042e-02 -2.000000000000000042e-02 -2.000000000000000042e-02 6.112522239562068194e-01 9.274743723308108700e-01 8.641451411599029298e-01 3.964102205079164665e-01 -3.540717879878307883e-03 -2.000000000000000042e-02 -2.000000000000000042e-02 -2.000000000000000042e-02 -2.000000000000000042e-02 -2.000000000000000042e-02 -2.000000000000000042e-02 -2.000000000000000042e-02 -2.000000000000000042e-02 -2.000000000000000042e-02 -2.000000000000000042e-02 -2.000000000000000042e-02 -2.000000000000000042e-02 -2.000000000000000042e-02 -2.000000000000000042e-02 -2.000000000000000042e-02 -2.000000000000000042e-02 -2.000000000000000042e-02 -2.000000000000000042e-02 -2.000000000000000042e-02 -2.000000000000000042e-02 -2.000000000000000042e-02 -2.000000000000000042e-02 -2.000000000000000042e-02 5.638706749545625563e-01 8.303924461595965090e-01 7.982506548496751675e-01 2.870811307416112346e-01 2.268216718404297838e-02 -2.000000000000000042e-02 -2.000000000000000042e-02 -2.000000000000000042e-02 -2.000000000000000042e-02 -2.000000000000000042e-02 -2.000000000000000042e-02 -2.000000000000000042e-02 -2.000000000000000042e-02 -2.000000000000000042e-02 -2.000000000000000042e-02 -2.000000000000000042e-02 -2.000000000000000042e-02 -2.000000000000000042e-02 -2.000000000000000042e-02 -2.000000000000000042e-02 -2.000000000000000042e-02 -2.000000000000000042e-02 -2.000000000000000042e-02 -2.000000000000000042e-02 -2.000000000000000042e-02 -2.000000000000000042e-02 -2.000000000000000042e-02 -2.000000000000000042e-02 4.277367388481919663e-01 7.606172701916720236e-01 9.242059325943360326e-01 3.324199256003358971e-01 -2.000000000000000042e-02 -2.000000000000000042e-02 -2.000000000000000042e-02 -2.000000000000000042e-02 -2.000000000000000042e-02 -2.000000000000000042e-02 -2.000000000000000042e-02 -2.000000000000000042e-02 -2.000000000000000042e-02 -2.000000000000000042e-02 -2.000000000000000042e-02 -2.000000000000000042e-02 -2.000000000000000042e-02 -2.000000000000000042e-02 -2.000000000000000042e-02 -2.000000000000000042e-02 -2.000000000000000042e-02 -2.000000000000000042e-02 -2.000000000000000042e-02 -2.000000000000000042e-02 -2.000000000000000042e-02 -2.000000000000000042e-02 -2.000000000000000042e-02 -2.000000000000000042e-02 3.491415789205397635e-01 6.959850205639663834e-01 8.126478111148287553e-01 2.404676538526220320e-01 -2.000000000000000042e-02 -2.000000000000000042e-02 -2.000000000000000042e-02 -2.000000000000000042e-02 -2.000000000000000042e-02 -2.000000000000000042e-02 -2.000000000000000042e-02 -2.000000000000000042e-02 -2.000000000000000042e-02 -2.000000000000000042e-02 -2.000000000000000042e-02 -2.000000000000000042e-02 -2.000000000000000042e-02 -2.000000000000000042e-02 -2.000000000000000042e-02 -2.000000000000000042e-02 -2.000000000000000042e-02 -2.000000000000000042e-02 -2.000000000000000042e-02 -2.000000000000000042e-02 -2.000000000000000042e-02 -2.000000000000000042e-02 -2.000000000000000042e-02 -2.000000000000000042e-02 6.971776492972536765e-01 7.205636300439803854e-01 8.501057132842215758e-01 -2.000000000000000042e-02 -2.000000000000000042e-02 -2.000000000000000042e-02 -2.000000000000000042e-02 -2.000000000000000042e-02 -2.000000000000000042e-02 -2.000000000000000042e-02 -2.000000000000000042e-02 -2.000000000000000042e-02 -2.000000000000000042e-02 -2.000000000000000042e-02 -2.000000000000000042e-02 -2.000000000000000042e-02 -2.000000000000000042e-02 -2.000000000000000042e-02 -2.000000000000000042e-02 -2.000000000000000042e-02 -2.000000000000000042e-02 -2.000000000000000042e-02 -2.000000000000000042e-02 -2.000000000000000042e-02 -2.000000000000000042e-02 -2.000000000000000042e-02 -2.000000000000000042e-02 -2.000000000000000042e-02 7.032841647131948815e-01 7.855448202471759789e-01 7.961483882726374528e-01 2.486834320215238758e-01 -2.000000000000000042e-02 -2.000000000000000042e-02 -2.000000000000000042e-02 -2.000000000000000042e-02 -2.000000000000000042e-02 -2.000000000000000042e-02 -2.000000000000000042e-02 -2.000000000000000042e-02 -2.000000000000000042e-02 -2.000000000000000042e-02 -2.000000000000000042e-02 -2.000000000000000042e-02 -2.000000000000000042e-02 -2.000000000000000042e-02 -2.000000000000000042e-02 -2.000000000000000042e-02 -2.000000000000000042e-02 -2.000000000000000042e-02 -2.000000000000000042e-02 -2.000000000000000042e-02 -2.000000000000000042e-02 -2.000000000000000042e-02 -2.000000000000000042e-02 -2.000000000000000042e-02 7.605922220870742212e-01 8.166892825284175483e-01 8.935017552281911968e-01 -2.000000000000000042e-02 -2.000000000000000042e-02 -2.000000000000000042e-02 -2.000000000000000042e-02 -2.000000000000000042e-02 -2.000000000000000042e-02 -2.000000000000000042e-02 -2.000000000000000042e-02 -2.000000000000000042e-02 -2.000000000000000042e-02 -2.000000000000000042e-02 -2.000000000000000042e-02 -2.000000000000000042e-02 -2.000000000000000042e-02 -2.000000000000000042e-02 -2.000000000000000042e-02 -2.000000000000000042e-02 -2.000000000000000042e-02 -2.000000000000000042e-02 -2.000000000000000042e-02 -2.000000000000000042e-02 -2.000000000000000042e-02 -2.000000000000000042e-02 -2.000000000000000042e-02 -2.000000000000000042e-02 8.360754953693507741e-01 8.568019757000149283e-01 9.121474377691464186e-01 -2.000000000000000042e-02 -2.000000000000000042e-02 -2.000000000000000042e-02 -2.000000000000000042e-02 -2.000000000000000042e-02 -2.000000000000000042e-02 -2.000000000000000042e-02 -2.000000000000000042e-02 -2.000000000000000042e-02 -2.000000000000000042e-02 -2.000000000000000042e-02 -2.000000000000000042e-02 -2.000000000000000042e-02 -2.000000000000000042e-02 -2.000000000000000042e-02 -2.000000000000000042e-02 -2.000000000000000042e-02 -2.000000000000000042e-02 -2.000000000000000042e-02 -2.000000000000000042e-02 -2.000000000000000042e-02 -2.000000000000000042e-02 -2.000000000000000042e-02 1.347931725172986650e-01 -2.000000000000000042e-02 7.689305421771535087e-01 8.087113048620104827e-01 9.265530138970078378e-01 -2.000000000000000042e-02 -2.000000000000000042e-02 -2.000000000000000042e-02 -2.000000000000000042e-02 -2.000000000000000042e-02 -2.000000000000000042e-02 -2.000000000000000042e-02 -2.000000000000000042e-02 -2.000000000000000042e-02 -2.000000000000000042e-02 -2.000000000000000042e-02 -2.000000000000000042e-02 -2.000000000000000042e-02 -2.000000000000000042e-02 -2.000000000000000042e-02 -2.000000000000000042e-02 -2.000000000000000042e-02 -2.000000000000000042e-02 -2.000000000000000042e-02 -2.000000000000000042e-02 -2.000000000000000042e-02 -2.000000000000000042e-02 -2.000000000000000042e-02 -2.000000000000000042e-02 1.705359202350039682e-01 8.756205918183794790e-01 8.901781571242813884e-01 8.422333911192115830e-01 -2.000000000000000042e-02 -2.000000000000000042e-02 -2.000000000000000042e-02 -2.000000000000000042e-02 -2.000000000000000042e-02 -2.000000000000000042e-02 -2.000000000000000042e-02 -2.000000000000000042e-02 -2.000000000000000042e-02 -2.000000000000000042e-02 -2.000000000000000042e-02 -2.000000000000000042e-02 -2.000000000000000042e-02 -2.000000000000000042e-02 -2.000000000000000042e-02 -2.000000000000000042e-02 -2.000000000000000042e-02 -2.000000000000000042e-02 -2.000000000000000042e-02 -2.000000000000000042e-02 -2.000000000000000042e-02 -2.000000000000000042e-02 -2.000000000000000042e-02 -2.000000000000000042e-02 -5.404639723539800267e-04 7.886596314338860658e-01 9.509096492953305058e-01 8.047736688872969557e-01 -2.000000000000000042e-02 -2.000000000000000042e-02 -2.000000000000000042e-02 -2.000000000000000042e-02 -2.000000000000000042e-02 -2.000000000000000042e-02 -2.000000000000000042e-02 -2.000000000000000042e-02 -2.000000000000000042e-02 -2.000000000000000042e-02 -2.000000000000000042e-02 -2.000000000000000042e-02 -2.000000000000000042e-02 -2.000000000000000042e-02 -2.000000000000000042e-02 -2.000000000000000042e-02 -2.000000000000000042e-02 -2.000000000000000042e-02 -2.000000000000000042e-02 -2.000000000000000042e-02 -2.000000000000000042e-02 -2.000000000000000042e-02 -2.000000000000000042e-02 -2.000000000000000042e-02 9.463711918530759437e-02 7.324660611000364252e-01 8.657231811148951017e-01 8.008461338578567457e-01 -2.000000000000000042e-02 -2.000000000000000042e-02 -2.000000000000000042e-02 -2.000000000000000042e-02 -2.000000000000000042e-02 -2.000000000000000042e-02 -2.000000000000000042e-02 -2.000000000000000042e-02 -2.000000000000000042e-02 -2.000000000000000042e-02 -2.000000000000000042e-02 -2.000000000000000042e-02 -2.000000000000000042e-02 -2.000000000000000042e-02 -2.000000000000000042e-02 -2.000000000000000042e-02 -2.000000000000000042e-02 -2.000000000000000042e-02 -2.000000000000000042e-02 -2.000000000000000042e-02 -2.000000000000000042e-02 -2.000000000000000042e-02 -2.000000000000000042e-02 -2.000000000000000042e-02 3.656378843383367716e-01 6.015915646203489064e-01 8.596899849376020697e-01 8.170308788539745182e-01 -2.000000000000000042e-02 -2.000000000000000042e-02 -2.000000000000000042e-02 -2.000000000000000042e-02 -2.000000000000000042e-02 -2.000000000000000042e-02 -2.000000000000000042e-02 -2.000000000000000042e-02 -2.000000000000000042e-02 -2.000000000000000042e-02 -2.000000000000000042e-02 -2.000000000000000042e-02 -2.000000000000000042e-02 -2.000000000000000042e-02 -2.000000000000000042e-02 -2.000000000000000042e-02 -2.000000000000000042e-02 -2.000000000000000042e-02 -2.000000000000000042e-02 -2.000000000000000042e-02 -2.000000000000000042e-02 -2.000000000000000042e-02 -2.000000000000000042e-02 -2.000000000000000042e-02 2.559533111055940502e-01 6.962033809413272767e-01 8.518565311552470654e-01 6.842433886400614007e-01 4.677265951722103798e-03 -2.000000000000000042e-02 -2.000000000000000042e-02 -2.000000000000000042e-02 -2.000000000000000042e-02 -2.000000000000000042e-02 -2.000000000000000042e-02 -2.000000000000000042e-02 -2.000000000000000042e-02 -2.000000000000000042e-02 -2.000000000000000042e-02 -2.000000000000000042e-02 -2.000000000000000042e-02 -2.000000000000000042e-02 -2.000000000000000042e-02 -2.000000000000000042e-02 -2.000000000000000042e-02 -2.000000000000000042e-02 -2.000000000000000042e-02 -2.000000000000000042e-02 -2.000000000000000042e-02 -2.000000000000000042e-02 -2.000000000000000042e-02 -2.000000000000000042e-02 2.410689826669668023e-01 4.497986905687712533e-01 9.050918769714236811e-01 6.266085584709786271e-01 1.715166498528621353e-01 -2.000000000000000042e-02 -2.000000000000000042e-02 -2.000000000000000042e-02 -2.000000000000000042e-02 -2.000000000000000042e-02 -2.000000000000000042e-02 -2.000000000000000042e-02 -2.000000000000000042e-02 -2.000000000000000042e-02 -2.000000000000000042e-02 -2.000000000000000042e-02 -2.000000000000000042e-02 -2.000000000000000042e-02 -2.000000000000000042e-02 -2.000000000000000042e-02 -2.000000000000000042e-02 -2.000000000000000042e-02 -2.000000000000000042e-02 -2.000000000000000042e-02 -2.000000000000000042e-02 -2.000000000000000042e-02 -2.000000000000000042e-02 -2.000000000000000042e-02 3.240860130320078469e-01 3.981791616935357880e-01 8.825298563445227451e-01 6.985726995025978159e-01 3.141097905678107982e-01 -2.000000000000000042e-02 -2.000000000000000042e-02 -2.000000000000000042e-02 -2.000000000000000042e-02 -2.000000000000000042e-02 -2.000000000000000042e-02 -2.000000000000000042e-02 -2.000000000000000042e-02 -2.000000000000000042e-02 -2.000000000000000042e-02 -2.000000000000000042e-02 -2.000000000000000042e-02 -2.000000000000000042e-02 -2.000000000000000042e-02 -2.000000000000000042e-02 -2.000000000000000042e-02 -2.000000000000000042e-02 -2.000000000000000042e-02 -2.000000000000000042e-02 -2.000000000000000042e-02 -2.000000000000000042e-02 -2.000000000000000042e-02 -2.000000000000000042e-02 3.947837583365931269e-01 5.639345281811345423e-01 8.238145240756215015e-01 6.836381217146472178e-01 5.455644446671323866e-01 -2.000000000000000042e-02 -2.000000000000000042e-02 -2.000000000000000042e-02 -2.000000000000000042e-02 -2.000000000000000042e-02 -2.000000000000000042e-02 -2.000000000000000042e-02 -2.000000000000000042e-02 -2.000000000000000042e-02 -2.000000000000000042e-02 -2.000000000000000042e-02 -2.000000000000000042e-02 -2.000000000000000042e-02 -2.000000000000000042e-02 -2.000000000000000042e-02 -2.000000000000000042e-02 -2.000000000000000042e-02 -2.000000000000000042e-02 -2.000000000000000042e-02 -2.000000000000000042e-02 -2.000000000000000042e-02 -2.000000000000000042e-02 1.643089046065468461e-01 2.380139991343346306e-01 5.158514791661215071e-01 6.067269282905081162e-01 6.880297699352891927e-01 4.073633463569116264e-01 -2.000000000000000042e-02 1.591105586394849780e-01 -2.000000000000000042e-02 -2.000000000000000042e-02 -2.000000000000000042e-02 -2.000000000000000042e-02 -2.000000000000000042e-02 -2.000000000000000042e-02 -2.000000000000000042e-02 -2.000000000000000042e-02 -2.000000000000000042e-02 -2.000000000000000042e-02 -2.000000000000000042e-02 -2.000000000000000042e-02 -2.000000000000000042e-02 -2.000000000000000042e-02 -2.000000000000000042e-02 -2.000000000000000042e-02 -2.000000000000000042e-02 -2.000000000000000042e-02 -2.000000000000000042e-02 -2.000000000000000042e-02 -2.000000000000000042e-02 -1.544005968637390813e-02 4.345200584238625985e-02 1.027602063830589940e-01 2.481393201488104466e-02 -2.000000000000000042e-02 -2.000000000000000042e-02 -2.000000000000000042e-02 -2.000000000000000042e-02 -2.000000000000000042e-02 -2.000000000000000042e-02 -2.000000000000000042e-02 -2.000000000000000042e-02 -2.000000000000000042e-02 -2.000000000000000042e-02 -2.000000000000000042e-02 -2.000000000000000042e-02 -2.000000000000000042e-02 -2.000000000000000042e-02 -2.000000000000000042e-02 -2.000000000000000042e-02 -2.000000000000000042e-02 -2.000000000000000042e-02 -2.000000000000000042e-02 -2.000000000000000042e-02 -2.000000000000000042e-02 -2.000000000000000042e-02 -2.000000000000000042e-02 -2.000000000000000042e-02 -2.000000000000000042e-02 -2.000000000000000042e-02 -2.000000000000000042e-02 1.381862853650856759e-01 -2.000000000000000042e-02 -2.000000000000000042e-02 -2.000000000000000042e-02 -2.000000000000000042e-02 -2.000000000000000042e-02 -2.000000000000000042e-02 -2.000000000000000042e-02 -2.000000000000000042e-02 -2.000000000000000042e-02 -2.000000000000000042e-02 -2.000000000000000042e-02 -2.000000000000000042e-02 -2.000000000000000042e-02 -2.000000000000000042e-02 -2.000000000000000042e-02 -2.000000000000000042e-02 -2.000000000000000042e-02 -2.000000000000000042e-02 -2.000000000000000042e-02 -2.000000000000000042e-02 -2.000000000000000042e-02 -2.000000000000000042e-02 -2.000000000000000042e-02 -2.000000000000000042e-02 -2.000000000000000042e-02 -2.000000000000000042e-02 -2.000000000000000042e-02 -2.000000000000000042e-02 -2.000000000000000042e-02 -2.000000000000000042e-02 -2.000000000000000042e-02 -2.000000000000000042e-02 -2.000000000000000042e-02 -2.000000000000000042e-02 -2.000000000000000042e-02 -2.000000000000000042e-02 -2.000000000000000042e-02 -2.000000000000000042e-02 -2.000000000000000042e-02 -2.000000000000000042e-02 -2.000000000000000042e-02 -2.000000000000000042e-02 -2.000000000000000042e-02 -2.000000000000000042e-02 -2.000000000000000042e-02 -2.000000000000000042e-02 -2.000000000000000042e-02 -2.000000000000000042e-02 -2.000000000000000042e-02 -2.000000000000000042e-02 -2.000000000000000042e-02 -2.000000000000000042e-02 -2.000000000000000042e-02 -2.000000000000000042e-02 -2.000000000000000042e-02 -2.000000000000000042e-02 -2.000000000000000042e-02 -2.000000000000000042e-02 -2.000000000000000042e-02 -2.000000000000000042e-02 -2.000000000000000042e-02 -2.000000000000000042e-02 -2.000000000000000042e-02 -2.000000000000000042e-02 -2.000000000000000042e-02 -2.000000000000000042e-02 -2.000000000000000042e-02 -2.000000000000000042e-02
-2.000000000000000042e-02 -2.000000000000000042e-02 -2.000000000000000042e-02 -2.000000000000000042e-02 -2.000000000000000042e-02 -2.000000000000000042e-02 -2.000000000000000042e-02 -2.000000000000000042e-02 -2.000000000000000042e-02 -2.000000000000000042e-02 -2.000000000000000042e-02 -2.000000000000000042e-02 -2.000000000000000042e-02 -2.000000000000000042e-02 -2.000000000000000042e-02 -2.000000000000000042e-02 -2.000000000000000042e-02 -2.000000000000000042e-02 -2.000000000000000042e-02 -2.000000000000000042e-02 -2.000000000000000042e-02 -2.000000000000000042e-02 -2.000000000000000042e-02 -2.000000000000000042e-02 -2.000000000000000042e-02 -2.000000000000000042e-02 -2.000000000000000042e-02 -2.000000000000000042e-02 -2.000000000000000042e-02 -2.000000000000000042e-02 -2.000000000000000042e-02 -2.000000000000000042e-02 -2.000000000000000042e-02 -2.000000000000000042e-02 -2.000000000000000042e-02 -2.000000000000000042e-02 -2.000000000000000042e-02 -2.000000000000000042e-02 -2.000000000000000042e-02 -2.000000000000000042e-02 -2.000000000000000042e-02 -2.000000000000000042e-02 -2.000000000000000042e-02 -2.000000000000000042e-02 -2.000000000000000042e-02 -2.000000000000000042e-02 -2.000000000000000042e-02 -2.000000000000000042e-02 -2.000000000000000042e-02 -2.000000000000000042e-02 -2.000000000000000042e-02 -2.000000000000000042e-02 -2.000000000000000042e-02 -2.000000000000000042e-02 -2.000000000000000042e-02 -2.000000000000000042e-02 -2.000000000000000042e-02 -2.000000000000000042e-02 -2.000000000000000042e-02 -2.000000000000000042e-02 -2.000000000000000042e-02 -2.000000000000000042e-02 -2.000000000000000042e-02 -2.000000000000000042e-02 -2.000000000000000042e-02 -2.000000000000000042e-02 -2.000000000000000042e-02 -2.000000000000000042e-02 -2.000000000000000042e-02 -2.000000000000000042e-02 -2.000000000000000042e-02 -2.000000000000000042e-02 -2.000000000000000042e-02 -2.000000000000000042e-02 -2.000000000000000042e-02 -2.000000000000000042e-02 -2.000000000000000042e-02 -2.000000000000000042e-02 -2.000000000000000042e-02 -2.000000000000000042e-02 -2.000000000000000042e-02 -2.000000000000000042e-02 -2.000000000000000042e-02 -2.000000000000000042e-02 -2.000000000000000042e-02 -2.000000000000000042e-02 -2.000000000000000042e-02 -2.000000000000000042e-02 -2.000000000000000042e-02 -2.000000000000000042e-02 -2.000000000000000042e-02 -2.000000000000000042e-02 2.120763479664251605e-01 1.415338288085824792e-01 1.769141460487733131e-01 1.952839527690448662e-01 1.438263988165579266e-01 2.422285542116396906e-01 1.548495949918748116e-01 1.003857630239398113e-01 -2.000000000000000042e-02 -2.000000000000000042e-02 -2.000000000000000042e-02 -2.000000000000000042e-02 -2.000000000000000042e-02 -2.000000000000000042e-02 -2.000000000000000042e-02 -2.000000000000000042e-02 -2.000000000000000042e-02 -2.000000000000000042e-02 -2.000000000000000042e-02 -2.000000000000000042e-02 -2.000000000000000042e-02 -2.000000000000000042e-02 -2.000000000000000042e-02 -2.000000000000000042e-02 -1.475356965072500970e-02 -2.000000000000000042e-02 2.458875749312379802e-02 1.680478563230585753e-01 2.107123262718943457e-01 3.607851954570352460e-01 2.154195261336330769e-01 3.447999537550633375e-01 5.952225539740073623e-01 5.660882139007324954e-01 7.308831722322082225e-01 5.731515708577206158e-01 5.758268225287755948e-01 3.055193002805857150e-01 -2.000000000000000042e-02 -2.000000000000000042e-02 -2.000000000000000042e-02 -2.000000000000000042e-02 -2.000000000000000042e-02 -2.000000000000000042e-02 -2.000000000000000042e-02 -2.000000000000000042e-02 -2.000000000000000042e-02 -2.000000000000000042e-02 -2.000000000000000042e-02 -2.000000000000000042e-02 -2.000000000000000042e-02 -2.000000000000000042e-02 -2.000000000000000042e-02 -2.000000000000000042e-02 -2.000000000000000042e-02 1.842068756101811478e-01 1.108317968215819238e-01 2.798130768693274373e-01 5.180056519190543440e-01 5.967741965135897608e-01 6.792780640268951675e-01 7.442169270570678785e-01 8.195764983826009376e-01 8.324553780669712300e-01 8.234275040621416020e-01 8.152936035293136818e-01 5.239937324619423631e-01 -2.000000000000000042e-02 -2.000000000000000042e-02 -2.000000000000000042e-02 -2.000000000000000042e-02 -2.000000000000000042e-02 -2.000000000000000042e-02 -2.000000000000000042e-02 -2.000000000000000042e-02 -2.000000000000000042e-02 -2.000000000000000042e-02 -2.000000000000000042e-02 -2.000000000000000042e-02 -2.000000000000000042e-02 -2.000000000000000042e-02 -2.000000000000000042e-02 -2.000000000000000042e-02 -2.000000000000000042e-02 -1.605745253608906187e-02 1.025495402522981492e-01 5.884563154360153980e-01 6.322380806192677838e-01 6.398829823748437562e-01 6.493319249829643258e-01 7.535109307541357770e-01 8.408729013249929274e-01 7.568304719117859847e-01 7.430935974211647643e-01 6.649331530156776804e-01 4.152871031417763592e-01 -2.000000000000000042e-02 -2.000000000000000042e-02 -2.000000000000000042e-02 -2.000000000000000042e-02 -2.000000000000000042e-02 -2.000000000000000042e-02 -2.000000000000000042e-02 -2.000000000000000042e-02 -2.000000000000000042e-02 -2.000000000000000042e-02 -2.000000000000000042e-02 -2.000000000000000042e-02 -2.000000000000000042e-02 -2.000000000000000042e-02 2.018952473031652983e-02 7.990972241560662104e-02 1.521806779807892418e-03 2.867613694538644342e-01 5.141888310582249932e-01 4.857431109705789285e-01 4.177447510217442428e-01 3.604453950381467098e-01 5.751284948930402985e-01 6.357243526292840619e-01 6.422158103820115871e-01 7.902630941734758441e-01 7.468329244561655589e-01 2.826756644940360830e-01 -2.000000000000000042e-02 -2.000000000000000042e-02 -2.000000000000000042e-02 -2.000000000000000042e-02 -2.000000000000000042e-02 -2.000000000000000042e-02 -2.000000000000000042e-02 -2.000000000000000042e-02 -2.000000000000000042e-02 -2.000000000000000042e-02 -2.000000000000000042e-02 -2.000000000000000042e-02 8.464262427536847766e-02 -1.000203302092350643e-02 -1.108535574088807818e-02 2.487043988991452514e-03 2.135180874210420576e-01 2.871614268591849983e-01 2.552902357867163907e-01 3.253101210795392717e-01 -2.000000000000000042e-02 -2.000000000000000042e-02 2.566176614318012028e-01 2.433026363767196720e-01 2.058424818385201083e-01 6.921115119075516020e-01 7.246772699694776776e-01 2.711136355274061938e-01 -2.000000000000000042e-02 -2.000000000000000042e-02 -2.000000000000000042e-02 -2.000000000000000042e-02 -2.000000000000000042e-02 -2.000000000000000042e-02 -2.000000000000000042e-02 -2.000000000000000042e-02 -2.000000000000000042e-02 -2.000000000000000042e-02 -2.000000000000000042e-02 -5.255477371177694201e-03 -4.198716895634613255e-03 1.174980153285649087e-01 -2.067544875474836008e-03 1.101520062405918210e-02 1.075649130367892226e-02 -2.000000000000000042e-02 -2.000000000000000042e-02 -2.000000000000000042e-02 -2.000000000000000042e-02 -2.000000000000000042e-02 2.189623454756281229e-01 2.466391878117427383e-01 3.084970475073789964e-01 6.909267895363142564e-01 6.625026212920979152e-01 3.428377080402533750e-01 -2.000000000000000042e-02 -2.000000000000000042e-02 -2.000000000000000042e-02 -2.000000000000000042e-02 -2.000000000000000042e-02 -2.000000000000000042e-02 -2.000000000000000042e-02 -2.000000000000000042e-02 -2.000000000000000042e-02 -2.000000000000000042e-02 1.774088577182496296e-02 -2.000000000000000042e-02 -2.000000000000000042e-02 2.461833560940948629e-02 -2.000000000000000042e-02 -2.000000000000000042e-02 -2.000000000000000042e-02 -2.000000000000000042e-02 -2.000000000000000042e-02 -2.000000000000000042e-02 -2.000000000000000042e-02 -2.000000000000000042e-02 1.627934490862434636e-01 2.613697191104483730e-01 4.581585636274026485e-01 7.689204002135225924e-01 6.203574216191707347e-01 3.175258791149164761e-01 -2.000000000000000042e-02 -2.000000000000000042e-02 -2.000000000000000042e-02 -2.000000000000000042e-02 -2.000000000000000042e-02 -2.000000000000000042e-02 -2.000000000000000042e-02 -2.000000000000000042e-02 -2.000000000000000042e-02 4.788479595919996334e-02 -1.769697080843445763e-02 -2.000000000000000042e-02 -2.000000000000000042e-02 -4.878275594904411816e-03 -2.000000000000000042e-02 -2.000000000000000042e-02 -2.000000000000000042e-02 -2.000000000000000042e-02 -2.000000000000000042e-02 -2.000000000000000042e-02 -2.000000000000000042e-02 2.579218249536219254e-02 1.046778239876349909e-01 4.563072708343524075e-01 4.002025652948342227e-01 7.001266292327437135e-01 5.501253885250088072e-01 1.224929340154118640e-01 -2.000000000000000042e-02 -2.000000000000000042e-02 -2.000000000000000042e-02 -2.000000000000000042e-02 -2.000000000000000042e-02 -2.000000000000000042e-02 -2.000000000000000042e-02 -2.000000000000000042e-02 -2.000000000000000042e-02 -2.000000000000000042e-02 -2.000000000000000042e-02 -2.000000000000000042e-02 1.603615191760954239e-02 -2.000000000000000042e-02 -2.000000000000000042e-02 -2.000000000000000042e-02 -2.000000000000000042e-02 -2.000000000000000042e-02 -2.000000000000000042e-02 -2.000000000000000042e-02 -2.000000000000000042e-02 5.090327295693862150e-03 2.629753446011589557e-01 5.235030446647300773e-01 4.574433409690961683e-01 4.782605834227363073e-01 5.180003648303121988e-01 7.071213650200280920e-02 -2.000000000000000042e-02 -2.000000000000000042e-02 -2.000000000000000042e-02 -2.000000000000000042e-02 -2.000000000000000042e-02 -2.000000000000000042e-02 -2.000000000000000042e-02 -2.000000000000000042e-02 -2.000000000000000042e-02 -2.000000000000000042e-02 -2.000000000000000042e-02 -2.000000000000000042e-02 2.124652489969006131e-02 -2.000000000000000042e-02 -2.000000000000000042e-02 -2.000000000000000042e-02 -2.000000000000000042e-02 -2.000000000000000042e-02 -2.000000000000000042e-02 -2.000000000000000042e-02 -2.000000000000000042e-02 4.918595115842180898e-01 6.164263272362763280e-01 6.737033383939777798e-01 5.689310938115903493e-01 6.228597473045516253e-01 2.684047898981037905e-01 9.622449184641043707e-04 -2.000000000000000042e-02 -2.000000000000000042e-02 -2.000000000000000042e-02 -2.000000000000000042e-02 -2.000000000000000042e-02 -2.000000000000000042e-02 -2.000000000000000042e-02 -2.000000000000000042e-02 -2.000000000000000042e-02 -2.000000000000000042e-02 -2.000000000000000042e-02 -2.000000000000000042e-02 1.093899963744306147e-02 -2.000000000000000042e-02 -2.000000000000000042e-02 -2.000000000000000042e-02 -2.000000000000000042e-02 -2.000000000000000042e-02 -2.000000000000000042e-02 1.284798711384098346e-01 3.737585463178113576e-01 4.974340383945279331e-01 5.317923502783891143e-01 4.191931230437747624e-01 5.742039227852011596e-01 2.640876635874875866e-01 1.624946072188168111e-01 2.177563578414414003e-03 -2.000000000000000042e-02 -2.000000000000000042e-02 -2.000000000000000042e-02 -2.000000000000000042e-02 -2.000000000000000042e-02 -2.000000000000000042e-02 -2.000000000000000042e-02 -2.000000000000000042e-02 -2.000000000000000042e-02 -2.000000000000000042e-02 -2.000000000000000042e-02 -2.000000000000000042e-02 -2.000000000000000042e-02 -2.000000000000000042e-02 -2.000000000000000042e-02 -2.000000000000000042e-02 -2.000000000000000042e-02 -2.000000000000000042e-02 2.831681357699156187e-02 3.469025735651982134e-01 4.888030245841265553e-01 6.126406714182660584e-01 5.031502052022506222e-01 2.975330921557490793e-01 3.826641490729829065e-01 3.023645257519605445e-01 1.835120280957433792e-01 -1.800333543935795505e-02 -2.000000000000000042e-02 -2.000000000000000042e-02 -2.000000000000000042e-02 -2.000000000000000042e-02 -2.000000000000000042e-02 -2.000000000000000042e-02 -2.000000000000000042e-02 -2.000000000000000042e-02 -2.000000000000000042e-02 -2.000000000000000042e-02 -2.000000000000000042e-02 -2.000000000000000042e-02 -2.000000000000000042e-02 -2.000000000000000042e-02 -2.000000000000000042e-02 -2.000000000000000042e-02 -2.000000000000000042e-02 7.714702309657400781e-02 1.434227736341939785e-01 4.439197074579713242e-01 7.063177544898671112e-01 6.833470190245982678e-01 6.720864246250288776e-01 3.774407336593481599e-01 2.864324536246668496e-01 2.335918350009215105e-01 -2.000000000000000042e-02 -2.000000000000000042e-02 -2.000000000000000042e-02 -2.000000000000000042e-02 -2.000000000000000042e-02 -2.000000000000000042e-02 -2.000000000000000042e-02 -2.000000000000000042e-02 -2.000000000000000042e-02 -2.000000000000000042e-02 -2.000000000000000042e-02 -2.000000000000000042e-02 -2.000000000000000042e-02 -2.000000000000000042e-02 -2.000000000000000042e-02 -2.000000000000000042e-02 -2.000000000000000042e-02 -2.000000000000000042e-02 7.148966158425329454e-02 1.557473005471267102e-01 2.284613647827863359e-01 6.412267522808416942e-01 5.854818131783909863e-01 6.264454324743172764e-01 5.299479026658238112e-01 3.145684256067807771e-01 8.672909339566481357e-02 3.014849583312603221e-01 6.169373392030146064e-02 -2.000000000000000042e-02 -2.000000000000000042e-02 -2.000000000000000042e-02 -2.000000000000000042e-02 -2.000000000000000042e-02 -2.000000000000000042e-02 -2.000000000000000042e-02 -2.000000000000000042e-02 -2.000000000000000042e-02 -2.000000000000000042e-02 -2.000000000000000042e-02 -2.000000000000000042e-02 -2.000000000000000042e-02 -2.000000000000000042e-02 -2.000000000000000042e-02 -2.000000000000000042e-02 1.225719422756549326e-02 3.353899295174639916e-01 1.062788054031950924e-01 4.035650324388092569e-01 6.367395254174956776e-01 6.349369213042775906e-01 5.491254703382870694e-01 3.493508909049849454e-01 2.174417061620091962e-01 2.489768807490973512e-01 2.950306419523455737e-01 2.609346538439502039e-01 2.439981725599421614e-01 1.699376377846106290e-01 4.388890434752831804e-01 2.061237655724920403e-01 4.529741313841487626e-04 -2.000000000000000042e-02 -2.000000000000000042e-02 -2.000000000000000042e-02 -2.000000000000000042e-02 -2.000000000000000042e-02 -2.000000000000000042e-02 -2.000000000000000042e-02 -2.000000000000000042e-02 -2.000000000000000042e-02 -2.000000000000000042e-02 -2.000000000000000042e-02 2.090868972755372535e-01 4.253356008922403175e-01 5.053355331608613277e-01 5.695709554843194633e-01 7.619088373487535870e-01 7.184722312837721336e-01 6.202920601788755040e-01 4.670397729813495213e-01 5.322183576398433758e-01 4.903066887566736587e-01 6.112353798434845276e-01 6.756218337826866982e-01 6.728846139459983000e-01 5.663088818180594952e-01 4.458069499678873893e-01 3.521969862583478883e-01 2.248401305714707865e-01 2.604542963652152834e-02 3.399749439147031760e-02 -2.000000000000000042e-02 -2.000000000000000042e-02 -2.000000000000000042e-02 -2.000000000000000042e-02 -2.000000000000000042e-02 -2.000000000000000042e-02 -2.000000000000000042e-02 -2.000000000000000042e-02 -2.000000000000000042e-02 2.705384920937610183e-01 4.671627988407625609e-01 5.665272071742676330e-01 8.011386599202322545e-01 8.569478606430035450e-01 8.855316576627566549e-01 8.285660671371689601e-01 6.216292384941197735e-01 6.941065277833528002e-01 6.697935607541992686e-01 6.705067664775329339e-01 5.991700319742712111e-01 6.674784368858348582e-01 6.580842804696230841e-01 5.706096116982570798e-01 3.210173536226436086e-01 4.360335311930320090e-01 -1.526353283124143312e-03 -2.000000000000000042e-02 -2.000000000000000042e-02 -2.000000000000000042e-02 -2.000000000000000042e-02 -2.000000000000000042e-02 -2.000000000000000042e-02 -2.000000000000000042e-02 -2.000000000000000042e-02 -2.000000000000000042e-02 -2.000000000000000042e-02 1.233503844991699072e-01 4.669851211039004468e-01 5.486025539588048616e-01 8.097883357445730956e-01 8.714926816350800909e-01 8.439948590966941389e-01 5.528362742244100625e-01 5.069110947618720164e-01 5.172074452983446147e-01 3.833398656362557166e-01 5.268160322643600235e-01 2.209717541842823318e-01 4.690562257306690741e-02 1.262074832706593375e-01 -2.000000000000000042e-02 -1.177470254820708884e-02 -2.000000000000000042e-02 -2.000000000000000042e-02 -2.000000000000000042e-02 -2.000000000000000042e-02 -2.000000000000000042e-02 -2.000000000000000042e-02 -2.000000000000000042e-02 -2.000000000000000042e-02 -2.000000000000000042e-02 -2.000000000000000042e-02 -2.000000000000000042e-02 -2.000000000000000042e-02 -2.000000000000000042e-02 7.886302857210641948e-02 5.471819910700489453e-01 7.264786928349802331e-01 8.096350500761291258e-01 6.969169114109133867e-01 4.664393084480369933e-01 2.640810585949182054e-01 2.887280138836169630e-01 2.389474603068360570e-01 3.218065654783955343e-01 1.097897898217621848e-01 8.325799789990692701e-04 -2.000000000000000042e-02 3.039250291929929126e-02 -2.000000000000000042e-02 -2.000000000000000042e-02 -2.000000000000000042e-02 -2.000000000000000042e-02 -2.000000000000000042e-02 -2.000000000000000042e-02 -2.000000000000000042e-02 -2.000000000000000042e-02 -2.000000000000000042e-02 -2.000000000000000042e-02 -2.000000000000000042e-02 -2.000000000000000042e-02 -2.000000000000000042e-02 -2.000000000000000042e-02 -2.000000000000000042e-02 -2.000000000000000042e-02 1.656705308942816590e-01 4.022443836803781814e-01 3.969897212600898562e-01 2.296877464381422707e-01 1.464319210195258736e-01 1.637357957770876893e-01 3.435827459280715868e-01 1.123626681324401688e-01 1.115702546634635972e-01 1.563486998998825372e-01 6.495465859071722359e-02 -2.000000000000000042e-02 -2.000000000000000042e-02 -2.000000000000000042e-02 -2.000000000000000042e-02 -2.000000000000000042e-02 -2.000000000000000042e-02 -2.000000000000000042e-02 -2.000000000000000042e-02 -2.000000000000000042e-02 -2.000000000000000042e-02 -2.000000000000000042e-02 -2.000000000000000042e-02 -2.000000000000000042e-02 -2.000000000000000042e-02 -2.000000000000000042e-02 -2.000000000000000042e-02 -2.000000000000000042e-02 -2.000000000000000042e-02 7.980381362926791677e-02 2.025607606107083791e-01 -5.940171661868359765e-03 4.445251068992725485e-02 1.681469642046382051e-02 6.712566207415945896e-02 5.592184609423329900e-02 7.990972241560662104e-02 3.238283955825914384e-02 -2.000000000000000042e-02 -2.000000000000000042e-02 -2.000000000000000042e-02 -2.000000000000000042e-02 -2.000000000000000042e-02 -2.000000000000000042e-02 -2.000000000000000042e-02 -2.000000000000000042e-02 -2.000000000000000042e-02 -2.000000000000000042e-02 -2.000000000000000042e-02 -2.000000000000000042e-02 -2.000000000000000042e-02 -2.000000000000000042e-02 -2.000000000000000042e-02 -2.000000000000000042e-02 -2.000000000000000042e-02 -2.000000000000000042e-02 -2.000000000000000042e-02 -2.000000000000000042e-02 -2.000000000000000042e-02 -2.000000000000000042e-02 -2.000000000000000042e-02 -2.000000000000000042e-02 -2.000000000000000042e-02 -2.000000000000000042e-02 -2.000000000000000042e-02 -2.000000000000000042e-02 -2.000000000000000042e-02 -2.000000000000000042e-02 -2.000000000000000042e-02 -2.000000000000000042e-02 -2.000000000000000042e-02 -2.000000000000000042e-02 -2.000000000000000042e-02 -2.000000000000000042e-02 -2.000000000000000042e-02 -2.000000000000000042e-02 -2.000000000000000042e-02 -2.000000000000000042e-02 -2.000000000000000042e-02 -2.000000000000000042e-02 -2.000000000000000042e-02 -2.000000000000000042e-02 -2.000000000000000042e-02 -2.000000000000000042e-02 -2.000000000000000042e-02 -2.000000000000000042e-02 -2.000000000000000042e-02 -2.000000000000000042e-02 -2.000000000000000042e-02 -2.000000000000000042e-02 -2.000000000000000042e-02 -2.000000000000000042e-02 -2.000000000000000042e-02 -2.000000000000000042e-02 -2.000000000000000042e-02 -2.000000000000000042e-02 -2.000000000000000042e-02 -2.000000000000000042e-02 -2.000000000000000042e-02 -2.000000000000000042e-02 -2.000000000000000042e-02 -2.000000000000000042e-02 -2.000000000000000042e-02 -2.000000000000000042e-02 -2.000000000000000042e-02 -2.000000000000000042e-02 -2.000000000000000042e-02 -2.000000000000000042e-02 -2.000000000000000042e-02 -2.000000000000000042e-02 -2.000000000000000042e-02 -2.000000000000000042e-02 -2.000000000000000042e-02 -2.000000000000000042e-02 -2.000000000000000042e-02 -2.000000000000000042e-02 -2.000000000000000042e-02 -2.000000000000000042e-02 -2.000000000000000042e-02 -2.000000000000000042e-02 -2.000000000000000042e-02 -2.000000000000000042e-02 -2.000000000000000042e-02 -2.000000000000000042e-02 -2.000000000000000042e-02 -2.000000000000000042e-02 -2.000000000000000042e-02 -2.000000000000000042e-02 -2.000000000000000042e-02 -2.000000000000000042e-02
