3.056734224909473663e-01 3.856086932395826894e-01 3.059602684880286527e-01 2.584428781372198336e-01 2.480037020923698821e-01 3.479407355550363512e-01 2.433955788982788138e-01 3.873240194676974557e-01 2.081426935930940914e-01 1.438738948411768248e-01 2.714295570361958121e-01 1.109728102902980407e-01 8.178949973980942367e-02 2.068689396363452837e-01 1.344069140175202237e-01 2.502879777227766112e-01 3.872603633776321441e-01 5.015831477854080372e-02 2.195079600953633511e-02 2.601175761105221640e-01 2.600637916352959156e-01 8.611517116535934158e-02 3.835790489685541593e-01 9.599150447305429545e-02 3.137674303303196743e-01 2.901951403194313883e-02 2.330612101266406055e-01 3.253743459726821108e-01 3.879329907444026282e-01 3.791562582106621782e-01 2.063428820261251073e-01 1.227534740223074350e-01 1.648856348488818291e-01 1.809337416142757851e-02 4.261536174872127398e-05 4.650971292101679921e-02 3.690222922999475408e-02 3.562103309540674001e-01 1.681308402987912176e-01 5.964798545431722332e-02 2.676836764134624125e-01 2.674434063267449591e-01 1.725797704752064787e-01 2.106497034522949452e-01 2.864904528537720596e-01 3.210490399354661850e-01 1.558357430771121210e-01 2.384673021092362510e-01 3.870475315876554245e-01 5.207882133680424158e-02 3.952125051617866869e-01 9.126938118362218355e-02 9.851528287294382402e-02 2.542936182940866430e-01 1.510847020402286134e-01 1.581456641006333610e-02 4.724356638409554776e-02 1.222828486679118226e-01 2.719951866670742430e-02 7.247547744836638217e-02 3.943397714301157819e-01 3.596706788458697290e-01 5.369059940505822859e-02 6.218279196088110500e-02
1.202851657458406498e+00 1.215595970786077951e+00 1.215595971287614319e+00 -1.199999999999999956e+00 -1.199999999999999956e+00 -1.199999999999999956e+00 -1.199999999999999956e+00 -1.199999999999999956e+00 1.202773918445029455e+00 1.202776459330437531e+00 1.415266373759878960e+00 -1.199999999999999956e+00 -1.199999999999999956e+00 -1.199999999999999956e+00 -1.199999999999999956e+00 -1.199999999999999956e+00 1.208562402087962173e+00 1.248574328696942848e+00 1.202851657479672598e+00 -1.199999999999999956e+00 -1.199999999999999956e+00 -1.199999999999999956e+00 -1.199999999999999956e+00 -1.199999999999999956e+00 1.202851657334556457e+00 1.215595960107795026e+00 1.215595959140985061e+00 -1.199999999999999956e+00 -1.199999999999999956e+00 -1.199999999999999956e+00 -1.199999999999999956e+00 -1.199999999999999956e+00 1.209765424491668462e+00 -1.199999999999999956e+00 1.278161423106340067e+00 -1.199999999999999956e+00 -1.199999999999999956e+00 -1.199999999999999956e+00 -1.199999999999999956e+00 -1.199999999999999956e+00 1.208562402092274279e+00 1.202851657477728375e+00 1.215595976540218448e+00 -1.199999999999999956e+00 -1.199999999999999956e+00 -1.199999999999999956e+00 -1.199999999999999956e+00 -1.199999999999999956e+00 1.202775852333411777e+00 1.202305655169958243e+00 1.202304186859464386e+00 -1.199999999999999956e+00 -1.199999999999999956e+00 -1.199999999999999956e+00 -1.199999999999999956e+00 -1.199999999999999956e+00 1.202851657403714691e+00 1.208562402084167431e+00 1.215595977251732185e+00 1.210037774901316920e+00 -1.199999999999999956e+00 -1.199999999999999956e+00 -1.199999999999999956e+00 -1.199999999999999956e+00
-1.199999999999999956e+00 -1.199999999999999956e+00 -1.199999999999999956e+00 -1.199999999999999956e+00 -1.199999999999999956e+00 1.208450151667874728e+00 1.242406043213018396e+00 1.220096368543157173e+00 -1.199999999999999956e+00 -1.199999999999999956e+00 -1.199999999999999956e+00 -1.199999999999999956e+00 -1.199999999999999956e+00 1.237906801914740562e+00 1.227985412402667453e+00 1.206580609230362811e+00 -1.199999999999999956e+00 -1.199999999999999956e+00 -1.199999999999999956e+00 -1.199999999999999956e+00 -1.199999999999999956e+00 1.206580609408649085e+00 1.242406063683127559e+00 1.218089023880039923e+00 -1.199999999999999956e+00 -1.199999999999999956e+00 -1.199999999999999956e+00 -1.199999999999999956e+00 -1.199999999999999956e+00 1.227985406558736337e+00 1.254272148529953279e+00 1.218089023888109468e+00 -1.199999999999999956e+00 -1.199999999999999956e+00 -1.199999999999999956e+00 -1.199999999999999956e+00 -1.199999999999999956e+00 1.220102584234310505e+00 1.242402769189776768e+00 1.218089023889706635e+00 -1.199999999999999956e+00 -1.199999999999999956e+00 -1.199999999999999956e+00 -1.199999999999999956e+00 -1.199999999999999956e+00 1.227985410123056509e+00 1.254994335110791948e+00 1.206580610897837857e+00 -1.199999999999999956e+00 -1.199999999999999956e+00 -1.199999999999999956e+00 -1.199999999999999956e+00 -1.199999999999999956e+00 1.206580594847105337e+00 1.206580602326605911e+00 1.357315025524243213e+00 -1.199999999999999956e+00 -1.199999999999999956e+00 -1.199999999999999956e+00 -1.199999999999999956e+00 1.221172822078983922e+00 1.208450238260604159e+00 1.218089023876084642e+00 1.227985403548823351e+00
