-1.199999999999999956e+00 -1.199999999999999956e+00 -1.199999999999999956e+00 -1.199999999999999956e+00 -1.199999999999999956e+00 1.208692734342318609e+00 1.242429291093656074e+00 1.220168541396787099e+00 -1.199999999999999956e+00 -1.199999999999999956e+00 -1.199999999999999956e+00 -1.199999999999999956e+00 -1.199999999999999956e+00 1.223233846834936633e+00 1.228945132830772780e+00 1.206922377783990141e+00 -1.199999999999999956e+00 -1.199999999999999956e+00 -1.199999999999999956e+00 -1.199999999999999956e+00 -1.199999999999999956e+00 1.206922378137190499e+00 1.242430203061249072e+00 1.218677363092175892e+00 -1.199999999999999956e+00 -1.199999999999999956e+00 -1.199999999999999956e+00 -1.199999999999999956e+00 -1.199999999999999956e+00 1.228945160030194828e+00 1.256049693919850663e+00 1.218677363078593867e+00 -1.199999999999999956e+00 -1.199999999999999956e+00 -1.199999999999999956e+00 -1.199999999999999956e+00 -1.199999999999999956e+00 1.220152405715987820e+00 1.242425332124048820e+00 1.218677363085861387e+00 -1.199999999999999956e+00 -1.199999999999999956e+00 -1.199999999999999956e+00 -1.199999999999999956e+00 -1.199999999999999956e+00 1.228945153473912644e+00 1.257054584886623472e+00 1.206922377384112011e+00 -1.199999999999999956e+00 -1.199999999999999956e+00 -1.199999999999999956e+00 -1.199999999999999956e+00 -1.199999999999999956e+00 1.206922376588196899e+00 1.206922376504698580e+00 1.332179474196012015e+00 -1.199999999999999956e+00 -1.199999999999999956e+00 -1.199999999999999956e+00 -1.199999999999999956e+00 1.231262841232538818e+00 1.208693041812753055e+00 1.218677363078563225e+00 1.228945157490727524e+00
2.776738741597188920e-01 1.067638938878549687e-01 2.205956254341119027e-01 3.554784082401067913e-01 2.453792681131164999e-01 3.643334860916077611e-01 3.799348764367990738e-01 2.510072043397655328e-01 2.140959995275158456e-01 2.345834987166096619e-01 2.744771649162667249e-01 3.738952806528548223e-01 1.595610617660578601e-01 3.680842739554929244e-01 1.333866194541586947e-01 1.921771301696360013e-01 8.165335434208992327e-02 6.354259900993497467e-02 4.308144670493510575e-02 5.037980767443968333e-02 8.373793470628126956e-02 7.681425260259927557e-02 6.405997592101320137e-02 6.741526532023081608e-02 9.547893188695600816e-03 5.308215864661076921e-02 2.349457838003927712e-01 1.019482222904912333e-01 4.631769065619675829e-02 1.085935673382101840e-01 8.092757470997771763e-02 4.484607412647032693e-02 2.694231488681150810e-01 3.916424691445270501e-01 1.480123057927164865e-01 2.341015289470387284e-01 3.849724071490242538e-01 2.701293864909897272e-02 1.552019860917788242e-02 3.744762331231226565e-02 3.296659839256500524e-01 1.321279746932397803e-01 2.721481646442797664e-01 3.267900062253983329e-01 1.777226706195488559e-01 1.375538436172581702e-01 1.063165791764121570e-01 3.363207687760745856e-01 1.918504735159690111e-01 2.075283755652864714e-01 5.825191456214842689e-02 3.846609678746691907e-01 2.959682098144896245e-01 8.339918380019972766e-02 3.767302915196122370e-01 1.925895413019096947e-01 2.825028446720704856e-01 6.905548178424428252e-02 2.109931424791040566e-01 1.359725294109366822e-01 1.301698284625063540e-01 1.967217296640817459e-01 1.728778795649050792e-01 1.001012274675123874e-02
1.219866453848103216e+00 1.217079051836202686e+00 1.217079085539582106e+00 -1.199999999999999956e+00 -1.199999999999999956e+00 -1.199999999999999956e+00 -1.199999999999999956e+00 -1.199999999999999956e+00 1.207279268735404587e+00 1.207283269892115207e+00 1.361612590701440695e+00 -1.199999999999999956e+00 -1.199999999999999956e+00 -1.199999999999999956e+00 -1.199999999999999956e+00 -1.199999999999999956e+00 1.215047194797887586e+00 1.272874823077866591e+00 1.219866453671261564e+00 -1.199999999999999956e+00 -1.199999999999999956e+00 -1.199999999999999956e+00 -1.199999999999999956e+00 -1.199999999999999956e+00 1.219866453654262273e+00 1.217079052167317599e+00 1.217079116579433240e+00 -1.199999999999999956e+00 -1.199999999999999956e+00 -1.199999999999999956e+00 -1.199999999999999956e+00 -1.199999999999999956e+00 1.211781761346058639e+00 -1.199999999999999956e+00 1.240602762551662908e+00 -1.199999999999999956e+00 -1.199999999999999956e+00 -1.199999999999999956e+00 -1.199999999999999956e+00 -1.199999999999999956e+00 1.215047194855724433e+00 1.219866453780270144e+00 1.217079110356663163e+00 -1.199999999999999956e+00 -1.199999999999999956e+00 -1.199999999999999956e+00 -1.199999999999999956e+00 -1.199999999999999956e+00 1.207282214823218069e+00 1.204260157331829006e+00 1.204260309450237321e+00 -1.199999999999999956e+00 -1.199999999999999956e+00 -1.199999999999999956e+00 -1.199999999999999956e+00 -1.199999999999999956e+00 1.219866453801641049e+00 1.215047194796379904e+00 1.217079087385997571e+00 1.315205264349753378e+00 -1.199999999999999956e+00 -1.199999999999999956e+00 -1.199999999999999956e+00 -1.199999999999999956e+00
