-1.199999999999999956e+00 -1.199999999999999956e+00 -1.199999999999999956e+00 -1.199999999999999956e+00 -1.199999999999999956e+00 1.208449983100548630e+00 1.242408704478296544e+00 1.220098624454471370e+00 -1.199999999999999956e+00 -1.199999999999999956e+00 -1.199999999999999956e+00 -1.199999999999999956e+00 -1.199999999999999956e+00 1.237873353620565275e+00 1.227985646659636609e+00 1.206580606979449133e+00 -1.199999999999999956e+00 -1.199999999999999956e+00 -1.199999999999999956e+00 -1.199999999999999956e+00 -1.199999999999999956e+00 1.206580611797279268e+00 1.242409278694571073e+00 1.218089024596006986e+00 -1.199999999999999956e+00 -1.199999999999999956e+00 -1.199999999999999956e+00 -1.199999999999999956e+00 -1.199999999999999956e+00 1.227985647767907196e+00 1.254651872338773178e+00 1.218089024600154113e+00 -1.199999999999999956e+00 -1.199999999999999956e+00 -1.199999999999999956e+00 -1.199999999999999956e+00 -1.199999999999999956e+00 1.220114542098897470e+00 1.242405536941924460e+00 1.218089024585495173e+00 -1.199999999999999956e+00 -1.199999999999999956e+00 -1.199999999999999956e+00 -1.199999999999999956e+00 -1.199999999999999956e+00 1.227985648356791026e+00 1.255054474400661091e+00 1.206580609984299723e+00 -1.199999999999999956e+00 -1.199999999999999956e+00 -1.199999999999999956e+00 -1.199999999999999956e+00 -1.199999999999999956e+00 1.206580594600523471e+00 1.206580600137435511e+00 1.357312260445324270e+00 -1.199999999999999956e+00 -1.199999999999999956e+00 -1.199999999999999956e+00 -1.199999999999999956e+00 1.221268437934482698e+00 1.208450078403698447e+00 1.218089024582718727e+00 1.227985642214422413e+00
1.202851657486450732e+00 1.215595973976031363e+00 1.215595987168976100e+00 -1.199999999999999956e+00 -1.199999999999999956e+00 -1.199999999999999956e+00 -1.199999999999999956e+00 -1.199999999999999956e+00 1.202775929661826337e+00 1.202772891948683087e+00 1.415065038600012315e+00 -1.199999999999999956e+00 -1.199999999999999956e+00 -1.199999999999999956e+00 -1.199999999999999956e+00 -1.199999999999999956e+00 1.208562402080124221e+00 1.248248568261223879e+00 1.202851657447396638e+00 -1.199999999999999956e+00 -1.199999999999999956e+00 -1.199999999999999956e+00 -1.199999999999999956e+00 -1.199999999999999956e+00 1.202851657460479506e+00 1.215595986128926720e+00 1.215595992543802462e+00 -1.199999999999999956e+00 -1.199999999999999956e+00 -1.199999999999999956e+00 -1.199999999999999956e+00 -1.199999999999999956e+00 1.209765023580492649e+00 -1.199999999999999956e+00 1.278160671583570496e+00 -1.199999999999999956e+00 -1.199999999999999956e+00 -1.199999999999999956e+00 -1.199999999999999956e+00 -1.199999999999999956e+00 1.208562402075264108e+00 1.202851657498348104e+00 1.215595962513208450e+00 -1.199999999999999956e+00 -1.199999999999999956e+00 -1.199999999999999956e+00 -1.199999999999999956e+00 -1.199999999999999956e+00 1.202775349247261261e+00 1.202304124630151794e+00 1.202306028774119184e+00 -1.199999999999999956e+00 -1.199999999999999956e+00 -1.199999999999999956e+00 -1.199999999999999956e+00 -1.199999999999999956e+00 1.202851657368976701e+00 1.208562402085871401e+00 1.215595971486144400e+00 1.210721129511724170e+00 -1.199999999999999956e+00 -1.199999999999999956e+00 -1.199999999999999956e+00 -1.199999999999999956e+00
1.316238385496609486e-01 2.238215349766228823e-01 2.737696324708576157e-01 3.815207826967151883e-01 2.970037708888485506e-01 2.371131719331710797e-01 3.741754192039400406e-01 3.136101873324724787e-01 3.528498847261148930e-01 1.332244212123812888e-01 3.905496688659201299e-01 2.136182274576459705e-01 2.420373448570027064e-01 6.406655072550915611e-03 3.654984645504575358e-01 2.897796361106994706e-02 1.037175165488138789e-01 6.379973401428391810e-02 1.542993442276379204e-02 1.600850963322626441e-01 5.857689805008741563e-02 3.024464427332760330e-01 3.049075159772807186e-01 1.629034643224612222e-01 9.314248716605316725e-02 1.132285441544878951e-01 1.473591454753174212e-01 2.563553858203663771e-01 3.303978969024432000e-01 2.113021275306249391e-01 7.483273123195721688e-02 1.143643775052027023e-01 6.292853398404547882e-02 7.694248403655651325e-02 3.705047541169477765e-01 3.473419097809090084e-01 8.175979329044982813e-02 9.648907542143891902e-02 3.701788091948375325e-01 6.282208250407098071e-02 4.196522939083338621e-02 1.597698470444522054e-02 1.708766370633715559e-01 2.180328571906730295e-01 2.898258814217609669e-01 3.320450460613419419e-01 3.044460705672131229e-01 2.423058904562945814e-01 2.009866945593633547e-01 3.307353159644808027e-01 2.249366150992255509e-01 1.463961198332739411e-01 2.045594776334406506e-01 2.866408172704644486e-02 2.864693442052285710e-01 8.280718342078374761e-02 1.225658441623962425e-01 3.183837049860024360e-01 1.604874542332932474e-01 1.955516862150762647e-01 8.515350404174149013e-02 2.516095663972332530e-01 2.075936605025419102e-01 8.813604186224553716e-02
